{"learner":{"attributes":{"best_iteration":"13","best_score":"0.914163885799036"},"feature_names":["num0","cat0","num1","cat1","num2","cat2"],"feature_types":["q","c","q","c","q","c"],"gradient_booster":{"model":{"cats":{"enc":[],"feature_segments":[],"sorted_idx":[]},"gbtree_model_param":{"num_parallel_tree":"1","num_trees":"24"},"iteration_indptr":[0,1,2,3,4,5,6,7,8,9,10,11,12,13,14,15,16,17,18,19,20,21,22,23,24],"tree_info":[0,0,0,0,0,0,0,0,0,0,0,0,0,0,0,0,0,0,0,0,0,0,0,0],"trees":[{"base_weights":[4.50494E-9,-9.212898E-1,7.638083E-1,-1.6921295E0,4.4914842E-1,-6.4805263E-1,1.0771785E0,-6.724418E-1,-1.849483E0,-9.4515216E-1,1.0849699E0,-1.1931819E0,5.305608E-1,3.1625116E-1,1.3946978E0,-2.6171345E-1,9.948582E-2,-3.9712614E-1,-9.199016E-1,-2.9253012E-1,1.24968484E-1,3.2362828E-1,-2.8179955E-1,3.600787E-2,-1.4741328E0,-1.4191335E-1,2.5675637E-1,-5.3850466E-1,1.1848379E0,1.5618737E0,4.5164533E-2,-2.6171345E-1,3.600787E-2,-1.6456094E-1,1.24968484E-1,-3.4014413E-1,-5.2952748E-2,-1.1106018E0,2.9500526E-1,3.2102317E-1,-1.0168567E-2,3.5526326E-1,1.0622772E0,-1.6456094E-1,2.3105834E-1,-2.9690644E-1,-4.6103183E-2,-1.4191335E-1,1.9002512E-1,3.0970022E-1,9.032907E-3],"categories":[0,1,2,3,1,3,6,0,1,2,3,4,6,7,2,1,3,4,6,1,0,2],"categories_nodes":[3,10,11,14,29,30,42],"categories_segments":[0,4,7,14,15,19,20],"categories_sizes":[4,3,7,1,4,1,2],"default_left":[0,1,0,0,0,1,1,0,0,0,1,0,0,1,1,0,0,0,1,0,0,0,0,0,0,0,0,1,0,1,0,0,0,0,0,0,0,0,1,0,0,0,0,0,0,0,0,0,0,0,0],"id":0,"left_children":[1,3,5,7,9,11,13,15,17,19,21,23,25,27,29,-1,-1,-1,31,-1,-1,-1,33,-1,35,-1,-1,37,39,41,43,-1,-1,-1,-1,-1,-1,45,47,-1,-1,-1,49,-1,-1,-1,-1,-1,-1,-1,-1],"loss_changes":[7.518747E1,5.1922016E1,2.6543613E1,3.7633972E0,1.7182373E1,7.851585E0,1.1199989E1,4.9248505E0,1.5225906E0,5.985671E0,9.916692E0,3.3479452E0,4.876406E0,1.2130076E1,7.533058E0,0E0,0E0,0E0,2.4773803E0,0E0,0E0,0E0,2.718873E0,0E0,1.3971157E0,0E0,0E0,4.3756566E0,4.2309685E0,1.3225937E0,5.522228E0,0E0,0E0,0E0,0E0,0E0,0E0,1.3834891E0,3.4680648E0,0E0,0E0,0E0,5.60979E0,0E0,0E0,0E0,0E0,0E0,0E0,0E0,0E0],"parents":[2147483647,0,0,1,1,2,2,3,3,4,4,5,5,6,6,7,7,8,8,9,9,10,10,11,11,12,12,13,13,14,14,18,18,22,22,24,24,27,27,28,28,29,29,30,30,37,37,38,38,42,42],"right_children":[2,4,6,8,10,12,14,16,18,20,22,24,26,28,30,-1,-1,-1,32,-1,-1,-1,34,-1,36,-1,-1,38,40,42,44,-1,-1,-1,-1,-1,-1,46,48,-1,-1,-1,50,-1,-1,-1,-1,-1,-1,-1,-1],"split_conditions":[-4.2171452E-2,1.7466596E-1,-7.958864E-1,1E-45,-1.0452534E0,9.424681E-1,5.8925588E-2,-4.8102713E-1,-2.0289683E-1,9.441932E-1,1E-45,1E-45,-1.5450764E0,3.356357E-1,1E-45,-2.6171345E-1,9.948582E-2,-3.9712614E-1,-4.699571E-1,-2.9253012E-1,1.24968484E-1,3.2362828E-1,9.520401E-1,3.600787E-2,-1.0029255E0,-1.4191335E-1,2.5675637E-1,-8.153897E-2,9.577862E-1,1E-45,1E-45,-2.6171345E-1,3.600787E-2,-1.6456094E-1,1.24968484E-1,-3.4014413E-1,-5.2952748E-2,-3.8508803E-2,-6.266006E-1,3.2102317E-1,-1.0168567E-2,3.5526326E-1,1E-45,-1.6456094E-1,2.3105834E-1,-2.9690644E-1,-4.6103183E-2,-1.4191335E-1,1.9002512E-1,3.0970022E-1,9.032907E-3],"split_indices":[0,2,2,3,0,0,0,0,0,2,5,5,2,2,3,0,0,0,2,0,0,0,2,0,2,0,0,4,4,5,1,0,0,0,0,0,0,2,2,0,0,0,3,0,0,0,0,0,0,0,0],"split_type":[0,0,0,1,0,0,0,0,0,0,1,1,0,0,1,0,0,0,0,0,0,0,0,0,0,0,0,0,0,1,1,0,0,0,0,0,0,0,0,0,0,0,1,0,0,0,0,0,0,0,0],"sum_hessian":[1.0484762E2,4.7431065E1,5.7416553E1,3.02061E1,1.7224966E1,1.0235125E1,4.7181427E1,4.7431064E0,2.5462994E1,5.242381E0,1.1982585E1,6.9898415E0,3.2452834E0,1.4478957E1,3.2702473E1,2.9956462E0,1.7474604E0,2.121916E1,4.243832E0,3.994195E0,1.2481859E0,8.487664E0,3.4949207E0,1.2481859E0,5.7416553E0,1.2481859E0,1.9970975E0,7.4891157E0,6.9898415E0,2.8957914E1,3.7445579E0,2.9956462E0,1.2481859E0,2.2467346E0,1.2481859E0,4.493469E0,1.2481859E0,4.243832E0,3.2452834E0,4.9927435E0,1.9970975E0,1.8473152E1,1.0484762E1,2.2467346E0,1.4978231E0,2.4963717E0,1.7474604E0,1.2481859E0,1.9970975E0,6.740204E0,3.7445579E0],"tree_param":{"num_deleted":"0","num_feature":"6","num_nodes":"51","size_leaf_vector":"1"}},{"base_weights":[6.984537E-5,-7.659195E-1,6.384941E-1,-1.4948733E0,2.4165802E-1,-1.1585535E0,8.125646E-1,-3.1393874E-1,-5.9352714E-1,-1.0053875E0,7.763025E-1,-2.7560994E-1,-4.610132E-2,1.1829053E0,3.403783E-1,-2.1892865E-1,4.532382E-2,-2.927779E-1,1.1167701E-1,1.3598243E0,-4.2187396E-1,5.687232E-1,3.1596145E-1,1.2898415E0,-1.7436904E-1,1.2247439E-1,2.9654315E-1,1.5699384E-1,-1.0329509E0,-5.674683E-1,1.2808927E0,1.0686288E-1,2.8579065E-1,-8.576992E-1,1.0719928E0,-2.5190622E-1,-5.409372E-2,8.067896E-2,-2.6050216E-1,2.9192185E-1,2.929317E-2,6.991076E-2,-2.146008E-1,-5.160469E-2,2.875774E-1],"categories":[1,3,4,6,1,3,6,0,1,2,0,1,2,1,2,4],"categories_nodes":[6,10,14,20,24,29],"categories_segments":[0,4,7,10,13,14],"categories_sizes":[4,3,3,3,1,2],"default_left":[0,1,0,0,0,1,0,0,1,0,1,0,0,1,0,0,0,0,0,0,0,1,0,1,1,0,0,0,0,1,0,0,0,0,0,0,0,0,0,0,0,0,0,0,0],"id":1,"left_children":[1,3,5,7,9,11,13,-1,15,17,19,-1,-1,21,23,-1,-1,-1,-1,25,27,29,-1,31,33,-1,-1,-1,35,37,39,-1,-1,41,43,-1,-1,-1,-1,-1,-1,-1,-1,-1,-1],"loss_changes":[5.1084496E1,3.5239136E1,1.8763918E1,9.3587875E-1,1.4644782E1,7.912526E-1,8.783501E0,0E0,1.7812755E0,5.6038375E0,1.1144237E1,0E0,0E0,6.1797905E0,1.2196249E1,0E0,0E0,0E0,0E0,4.770279E-2,5.025344E0,1.1214279E1,0E0,1.5406132E-1,1.5197273E1,0E0,0E0,0E0,3.893671E-1,4.5836554E0,1.4637089E0,0E0,0E0,3.333931E0,3.4762764E0,0E0,0E0,0E0,0E0,0E0,0E0,0E0,0E0,0E0,0E0],"parents":[2147483647,0,0,1,1,2,2,3,3,4,4,5,5,6,6,8,8,9,9,10,10,13,13,14,14,19,19,20,20,21,21,23,23,24,24,28,28,29,29,30,30,33,33,34,34],"right_children":[2,4,6,8,10,12,14,-1,16,18,20,-1,-1,22,24,-1,-1,-1,-1,26,28,30,-1,32,34,-1,-1,-1,36,38,40,-1,-1,42,44,-1,-1,-1,-1,-1,-1,-1,-1,-1,-1],"split_conditions":[-4.2171452E-2,1.0990766E-2,-1.2882828E0,-1.3370156E-1,-1.0707526E0,1.1411018E0,1E-45,-3.1393874E-1,-9.4722986E-1,9.441932E-1,1E-45,-2.7560994E-1,-4.610132E-2,2.8427967E-1,1E-45,-2.1892865E-1,4.532382E-2,-2.927779E-1,1.1167701E-1,-6.9456786E-1,1E-45,-2.8318587E-1,3.1596145E-1,5.8925588E-2,1E-45,1.2247439E-1,2.9654315E-1,1.5699384E-1,6.537859E-1,1E-45,1.4757459E0,1.0686288E-1,2.8579065E-1,1.5494743E-1,-5.178168E-1,-2.5190622E-1,-5.409372E-2,8.067896E-2,-2.6050216E-1,2.9192185E-1,2.929317E-2,6.991076E-2,-2.146008E-1,-5.160469E-2,2.875774E-1],"split_indices":[0,2,2,0,0,0,5,0,2,2,5,0,0,0,3,0,0,0,0,0,3,2,0,0,1,0,0,0,2,3,4,0,0,0,2,0,0,0,0,0,0,0,0,0,0],"split_type":[0,0,0,0,0,0,1,0,0,0,1,0,0,0,1,0,0,0,0,0,1,0,0,0,1,0,0,0,0,1,0,0,0,0,0,0,0,0,0,0,0,0,0,0,0],"sum_hessian":[1.0246166E2,4.648667E1,5.597499E1,2.669208E1,1.9794594E1,4.443728E0,5.153126E1,2.396154E1,2.7305386E0,5.675694E0,1.41189E1,3.2016096E0,1.2421184E0,2.803665E1,2.3494612E1,1.4871716E0,1.243367E0,4.438259E0,1.237435E0,9.40411E0,4.7147903E0,1.196085E1,1.60758E1,7.7302375E0,1.5764375E1,2.1726444E0,7.2314653E0,1.4891785E0,3.2256117E0,4.686776E0,7.274074E0,1.9547471E0,5.7754903E0,1.0383407E1,5.380968E0,1.9841249E0,1.2414869E0,2.2138548E0,2.4729211E0,6.036449E0,1.2376251E0,1.4771618E0,8.906245E0,1.2245553E0,4.1564126E0],"tree_param":{"num_deleted":"0","num_feature":"6","num_nodes":"45","size_leaf_vector":"1"}},{"base_weights":[3.5179376E-3,-6.5964824E-1,5.531617E-1,-1.1944661E0,3.938613E-1,-5.062486E-1,7.9694134E-1,-1.3481371E0,-4.7713816E-1,-8.958686E-1,8.0420303E-1,-8.134599E-1,1.4633267E-1,9.559392E-1,-9.360493E-2,-6.8397343E-1,-2.886877E-1,-2.2221522E-1,1.228354E-1,-2.5682306E-2,-2.2955719E-1,1.2434194E0,-2.3730662E-2,3.4141533E-2,-1.1635084E0,1.1810627E0,3.0870458E-1,-8.7273014E-1,5.694966E-1,-2.2714236E-1,7.921276E-2,2.6641083E-1,7.3945515E-2,1.8689382E-1,-5.214513E-1,-9.114928E-2,1.1312925E-1,-2.6747212E-1,-6.492816E-2,1.2258756E0,2.134942E-2,7.5338286E-1,-5.4622954E-1,-3.4923937E-2,-2.238436E-1,-1.8641569E-2,2.0870827E-1,-2.1405402E-1,5.7406444E-2,2.6718187E-1,1.1271449E-1,2.2058444E-1,-1.2068919E-1,-2.484253E-3,-2.1112986E-1],"categories":[2,0,2,3,4,5,6,1,3,6,7,0,1,2,3,4,6,0,1,2,3,2,3,6,4,6,2],"categories_nodes":[6,7,10,11,22,24,26,39,42],"categories_segments":[0,1,7,11,17,21,22,24,26],"categories_sizes":[1,6,4,6,4,1,2,2,1],"default_left":[0,1,0,1,0,1,1,0,0,0,1,0,0,0,1,0,0,0,0,0,0,1,1,1,1,1,0,0,0,0,0,0,0,0,0,0,0,0,0,1,0,0,0,0,0,0,0,0,0,0,0,0,0,0,0],"id":2,"left_children":[1,3,5,7,9,11,13,15,17,19,21,23,-1,25,27,29,-1,-1,-1,-1,-1,31,33,35,37,39,41,43,45,-1,-1,-1,-1,-1,47,-1,-1,-1,-1,49,-1,51,53,-1,-1,-1,-1,-1,-1,-1,-1,-1,-1,-1,-1],"loss_changes":[3.6185024E1,2.582066E1,1.4421532E1,2.673706E0,9.136112E0,4.6891336E0,6.3923435E0,5.466194E-1,5.4260364E0,6.8611765E-1,4.6079416E0,2.7391768E0,0E0,5.151764E0,4.451497E0,2.8607817E0,0E0,0E0,0E0,0E0,0E0,1.4600277E-1,3.0365665E0,1.2031476E0,5.090513E-1,1.2044029E0,4.6405044E0,4.7808623E-1,1.5863853E0,0E0,0E0,0E0,0E0,0E0,2.1529675E0,0E0,0E0,0E0,0E0,1.1804543E0,0E0,4.335431E0,1.1795506E0,0E0,0E0,0E0,0E0,0E0,0E0,0E0,0E0,0E0,0E0,0E0,0E0],"parents":[2147483647,0,0,1,1,2,2,3,3,4,4,5,5,6,6,7,7,8,8,9,9,10,10,11,11,13,13,14,14,15,15,21,21,22,22,23,23,24,24,25,25,26,26,27,27,28,28,34,34,39,39,41,41,42,42],"right_children":[2,4,6,8,10,12,14,16,18,20,22,24,-1,26,28,30,-1,-1,-1,-1,-1,32,34,36,38,40,42,44,46,-1,-1,-1,-1,-1,48,-1,-1,-1,-1,50,-1,52,54,-1,-1,-1,-1,-1,-1,-1,-1,-1,-1,-1,-1],"split_conditions":[-4.2171452E-2,2.686291E-1,-7.958864E-1,-1.8523395E-1,-1.179158E0,1.5327792E0,1E-45,1E-45,-5.1080513E-1,-1.5829384E0,1E-45,1E-45,1.4633267E-1,1.922942E0,8.1235096E-2,-4.3782005E-1,-2.886877E-1,-2.2221522E-1,1.228354E-1,-2.5682306E-2,-2.2955719E-1,8.9646053E-1,1E-45,-2.4513127E-1,1E-45,1.2966034E0,1E-45,-2.109448E-1,8.644362E-1,-2.2714236E-1,7.921276E-2,2.6641083E-1,7.3945515E-2,1.8689382E-1,7.547995E-1,-9.114928E-2,1.1312925E-1,-2.6747212E-1,-6.492816E-2,1E-45,2.134942E-2,1.5602595E0,1E-45,-3.4923937E-2,-2.238436E-1,-1.8641569E-2,2.0870827E-1,-2.1405402E-1,5.7406444E-2,2.6718187E-1,1.1271449E-1,2.2058444E-1,-1.2068919E-1,-2.484253E-3,-2.1112986E-1],"split_indices":[0,2,2,2,0,0,3,5,0,0,5,5,0,0,2,0,0,0,0,0,0,4,3,4,1,4,5,2,0,0,0,0,0,0,2,0,0,0,0,5,0,4,1,0,0,0,0,0,0,0,0,0,0,0,0],"split_type":[0,0,0,0,0,0,1,1,0,0,1,1,0,0,0,0,0,0,0,0,0,0,1,0,1,0,1,0,0,0,0,0,0,0,0,0,0,0,0,1,0,0,1,0,0,0,0,0,0,0,0,0,0,0,0],"sum_hessian":[9.727058E1,4.3992188E1,5.3278393E1,2.9090496E1,1.49016905E1,9.765053E0,4.351334E1,2.3233803E1,5.8566923E0,3.3111892E0,1.1590502E1,8.0982065E0,1.6668459E0,3.68591E1,6.654241E0,3.941577E0,1.9292227E1,3.6932185E0,2.163474E0,1.1913921E0,2.1197972E0,7.2451415E0,4.3453603E0,2.630712E0,5.4674945E0,2.6735188E1,1.0123912E1,2.9141111E0,3.7401302E0,2.7428138E0,1.1987631E0,6.101524E0,1.1436179E0,1.1855228E0,3.1598372E0,1.4431219E0,1.1875901E0,4.0366654E0,1.4308293E0,2.5529211E1,1.2059757E0,6.7380314E0,3.3858807E0,1.2062274E0,1.7078836E0,1.8947239E0,1.8454064E0,1.6892992E0,1.470538E0,2.1019934E1,4.509278E0,5.5065856E0,1.2314459E0,2.1535804E0,1.2323002E0],"tree_param":{"num_deleted":"0","num_feature":"6","num_nodes":"55","size_leaf_vector":"1"}},{"base_weights":[-7.361669E-4,-4.4655508E-1,6.186668E-1,-9.654772E-1,4.4798812E-1,-8.848751E-1,7.9053485E-1,-1.2293037E0,-5.917072E-1,-8.0174416E-1,7.23031E-1,-2.2711194E-1,-1.965127E-2,1.1368032E0,3.9658734E-1,-6.8566453E-1,-2.656939E-1,-1.0552459E0,-1.1229434E-1,-2.2921404E-2,-2.0716345E-1,1.0262954E0,-1.6768108E-1,1.8510728E-1,2.5176892E-1,9.738132E-1,-2.4916898E-1,-2.0935147E-1,3.5850953E-2,-4.9638236E-1,-2.536621E-1,6.516907E-1,-5.541406E-1,1.2522116E0,-1.3495135E-1,-7.064241E-1,1.83467E-1,-1.03639E-1,1.6189595E-1,1.955761E-2,1.0769984E0,5.455976E-1,-2.5203237E-1,-1.8910812E-1,6.1260205E-2,1.9912407E-1,5.451094E-3,-1.9805385E-1,2.7788496E-2,2.622235E-1,7.006284E-2,-2.864109E-2,-2.0646213E-1,2.2782853E-1,6.653224E-2,2.0046282E-1,-5.404355E-2],"categories":[1,3,4,6,0,1,3,4,5,6,1,3,6,0,2,2,3,4,0,1,2,1,0,1,1,0,2],"categories_nodes":[6,7,10,14,17,18,22,26,31,32,33,41],"categories_segments":[0,4,10,13,15,18,21,22,23,24,25,26],"categories_sizes":[4,6,3,2,3,3,1,1,1,1,1,1],"default_left":[1,1,0,0,0,0,0,0,0,0,1,0,0,0,0,0,0,1,0,0,0,1,1,0,0,0,1,0,0,0,0,0,0,1,0,0,0,0,0,0,0,1,0,0,0,0,0,0,0,0,0,0,0,0,0,0,0],"id":3,"left_children":[1,3,5,7,9,11,13,15,17,19,21,-1,-1,23,25,27,-1,29,31,-1,-1,33,35,37,-1,39,41,-1,-1,43,-1,45,47,49,-1,51,-1,-1,-1,-1,53,55,-1,-1,-1,-1,-1,-1,-1,-1,-1,-1,-1,-1,-1,-1,-1],"loss_changes":[2.5752348E1,2.560431E1,1.0785541E1,2.6880188E0,7.6574483E0,7.710099E-1,4.3992977E0,1.336708E-1,3.4947996E0,5.5496025E-1,4.872903E0,0E0,0E0,1.9025536E0,7.0148168E0,1.7666402E0,0E0,3.4059334E-1,3.4370084E0,0E0,0E0,5.887988E0,3.7342722E0,1.852001E0,0E0,7.8025246E-1,8.217461E0,0E0,0E0,1.6927719E0,0E0,7.8861713E-1,2.0460186E0,1.7474365E-1,0E0,6.034062E-1,0E0,0E0,0E0,0E0,2.1846771E-2,2.4857843E0,0E0,0E0,0E0,0E0,0E0,0E0,0E0,0E0,0E0,0E0,0E0,0E0,0E0,0E0,0E0],"parents":[2147483647,0,0,1,1,2,2,3,3,4,4,5,5,6,6,7,7,8,8,9,9,10,10,13,13,14,14,15,15,17,17,18,18,21,21,22,22,23,23,25,25,26,26,29,29,31,31,32,32,33,33,35,35,40,40,41,41],"right_children":[2,4,6,8,10,12,14,16,18,20,22,-1,-1,24,26,28,-1,30,32,-1,-1,34,36,38,-1,40,42,-1,-1,44,-1,46,48,50,-1,52,-1,-1,-1,-1,54,56,-1,-1,-1,-1,-1,-1,-1,-1,-1,-1,-1,-1,-1,-1,-1],"split_conditions":[-4.2171452E-2,2.686291E-1,-1.2882828E0,-4.1361898E-1,-1.179158E0,7.0734394E-1,1E-45,1E-45,-5.183214E-1,-1.5829384E0,1E-45,-2.2711194E-1,-1.965127E-2,-9.043689E-1,1E-45,-6.0411666E-2,-2.656939E-1,1E-45,1E-45,-2.2921404E-2,-2.0716345E-1,1.4782174E0,1E-45,5.7659084E-1,2.5176892E-1,-7.457522E-1,1E-45,-2.0935147E-1,3.5850953E-2,-5.2567296E-2,-2.536621E-1,1E-45,1E-45,1E-45,-1.3495135E-1,-1.9680034E-1,1.83467E-1,-1.03639E-1,1.6189595E-1,1.955761E-2,1.222445E0,1E-45,-2.5203237E-1,-1.8910812E-1,6.1260205E-2,1.9912407E-1,5.451094E-3,-1.9805385E-1,2.7788496E-2,2.622235E-1,7.006284E-2,-2.864109E-2,-2.0646213E-1,2.2782853E-1,6.653224E-2,2.0046282E-1,-5.404355E-2],"split_indices":[0,2,2,0,0,4,5,5,2,0,5,0,0,2,3,2,0,3,3,0,0,4,1,0,0,2,1,0,0,0,0,1,1,3,0,4,0,0,0,0,0,3,0,0,0,0,0,0,0,0,0,0,0,0,0,0,0],"split_type":[0,0,0,0,0,0,1,1,0,0,1,0,0,0,1,0,0,1,1,0,0,0,1,0,0,0,1,0,0,0,0,1,1,1,0,0,0,0,0,0,0,1,0,0,0,0,0,0,0,0,0,0,0,0,0,0,0],"sum_hessian":[9.125731E1,5.3226376E1,3.8030937E1,3.363532E1,1.9591055E1,3.4757438E0,3.4555195E1,1.8375788E1,1.5259531E1,3.1884558E0,1.64026E1,2.2993703E0,1.1763734E0,1.7386925E1,1.7168268E1,4.055786E0,1.4320002E1,7.1475387E0,8.111993E0,1.1886663E0,1.9997895E0,1.2122859E1,4.27974E0,2.2622616E0,1.5124664E1,8.796907E0,8.371361E0,2.7129338E0,1.3428524E0,2.891894E0,4.2556443E0,2.7984092E0,5.313584E0,1.0934511E1,1.1883476E0,3.0929332E0,1.1868068E0,1.143858E0,1.1184037E0,1.132222E0,7.6646857E0,4.944613E0,3.4267483E0,1.7401707E0,1.1517235E0,1.4212E0,1.3772092E0,2.9981701E0,2.3154135E0,9.838211E0,1.0963006E0,1.6612624E0,1.4316708E0,6.5845346E0,1.0801511E0,3.023415E0,1.9211977E0],"tree_param":{"num_deleted":"0","num_feature":"6","num_nodes":"57","size_leaf_vector":"1"}},{"base_weights":[-6.5814964E-3,-3.814464E-1,5.9319174E-1,-9.359048E-1,3.4154695E-1,-7.932307E-1,7.7362263E-1,-1.1270428E0,-5.449663E-1,-8.009574E-1,5.856625E-1,-2.056276E-1,-1.754967E-2,9.965553E-1,2.3945278E-1,-2.5272912E-1,-5.5529225E-1,-8.9302987E-1,2.996991E-1,-2.0057754E-1,-2.247717E-2,8.827549E-1,-3.8257238E-1,1.0808799E0,-2.109243E-2,-3.9845657E-1,2.0326853E-1,-1.9225278E-1,1.7098563E-2,-2.9722884E-1,-2.1766059E-1,-1.3786988E-1,1.7333598E-1,1.0430522E0,-9.103712E-2,-7.6737666E-1,1.0687723E-1,4.5048633E-1,2.3470901E-1,2.4173936E-1,-7.822665E-1,3.528058E-2,-1.3965689E-1,2.3446655E-1,-5.1437407E-3,-2.1633776E-1,-1.1536684E-2,-1.2131882E-2,1.6118346E-1,8.719481E-3,6.334494E-2,6.602952E-3,-2.1594656E-1],"categories":[0,2,3,6,1,0,1,2,3,4,0,0,0],"categories_nodes":[6,10,14,25,29,33,39],"categories_segments":[0,2,4,5,10,11,12],"categories_sizes":[2,2,1,5,1,1,1],"default_left":[1,1,0,1,0,0,1,0,1,0,1,0,0,1,0,0,0,0,0,0,0,1,0,0,0,0,0,0,0,0,0,0,0,1,0,1,0,0,0,1,0,0,0,0,0,0,0,0,0,0,0,0,0],"id":4,"left_children":[1,3,5,7,9,11,13,15,17,19,21,-1,-1,23,25,-1,27,29,31,-1,-1,33,35,37,-1,39,-1,-1,-1,41,-1,-1,-1,43,-1,45,-1,47,-1,49,51,-1,-1,-1,-1,-1,-1,-1,-1,-1,-1,-1,-1],"loss_changes":[1.9449041E1,2.1654829E1,8.937629E0,1.6565838E0,7.116164E0,6.2662935E-1,3.327919E0,8.192806E-1,3.770691E0,5.294161E-1,6.152596E0,0E0,0E0,2.0482407E0,5.4278083E0,0E0,1.5232041E0,6.874833E-1,2.9671822E0,0E0,0E0,3.857112E0,2.3309777E0,6.060009E-1,0E0,1.733108E0,0E0,0E0,0E0,7.919394E-1,0E0,0E0,0E0,2.0180607E0,0E0,8.8456726E-1,0E0,7.960088E-1,0E0,3.253524E-2,1.0456405E0,0E0,0E0,0E0,0E0,0E0,0E0,0E0,0E0,0E0,0E0,0E0,0E0],"parents":[2147483647,0,0,1,1,2,2,3,3,4,4,5,5,6,6,7,7,8,8,9,9,10,10,13,13,14,14,16,16,17,17,18,18,21,21,22,22,23,23,25,25,29,29,33,33,35,35,37,37,39,39,40,40],"right_children":[2,4,6,8,10,12,14,16,18,20,22,-1,-1,24,26,-1,28,30,32,-1,-1,34,36,38,-1,40,-1,-1,-1,42,-1,-1,-1,44,-1,46,-1,48,-1,50,52,-1,-1,-1,-1,-1,-1,-1,-1,-1,-1,-1,-1],"split_conditions":[5.8925588E-2,1.1206079E-1,-1.2882828E0,-8.153897E-2,-1.179158E0,7.0734394E-1,1E-45,5.5135353E-3,-4.699571E-1,7.607826E-1,1E-45,-2.056276E-1,-1.754967E-2,1.286427E0,1E-45,-2.5272912E-1,-4.607198E-1,3.6540458E-1,-4.8102713E-1,-2.0057754E-1,-2.247717E-2,1.7001231E0,1.159675E0,2.3218104E-1,-2.109243E-2,1E-45,2.0326853E-1,-1.9225278E-1,1.7098563E-2,1E-45,-2.1766059E-1,-1.3786988E-1,1.7333598E-1,1E-45,-9.103712E-2,-2.3297502E-1,1.0687723E-1,4.231784E-2,2.3470901E-1,1E-45,-5.602148E-1,3.528058E-2,-1.3965689E-1,2.3446655E-1,-5.1437407E-3,-2.1633776E-1,-1.1536684E-2,-1.2131882E-2,1.6118346E-1,8.719481E-3,6.334494E-2,6.602952E-3,-2.1594656E-1],"split_indices":[0,2,2,4,0,4,3,2,2,2,5,0,0,4,1,0,0,4,0,0,0,4,2,0,0,5,0,0,0,3,0,0,0,3,0,4,0,4,0,1,4,0,0,0,0,0,0,0,0,0,0,0,0],"split_type":[0,0,0,0,0,0,1,0,0,0,1,0,0,0,1,0,0,0,0,0,0,0,0,0,0,1,0,0,0,1,0,0,0,1,0,0,0,0,0,1,0,0,0,0,0,0,0,0,0,0,0,0,0],"sum_hessian":[8.449764E1,5.2222206E1,3.227544E1,2.9389286E1,2.2832918E1,3.3255737E0,2.8949865E1,1.8474035E1,1.0915251E1,3.6181715E0,1.9214748E1,2.151744E0,1.1738297E0,1.98147E1,9.135166E0,1.3934633E1,4.539401E0,7.6894E0,3.2258508E0,2.4447489E0,1.1734225E0,1.4770778E1,4.4439697E0,1.8424099E1,1.3906007E0,5.283755E0,3.851412E0,2.4726868E0,2.0667143E0,2.5206676E0,5.1687326E0,1.0967834E0,2.1290674E0,1.3387268E1,1.38351E0,3.2452285E0,1.198741E0,3.1123662E0,1.5311732E1,2.119156E0,3.164599E0,1.4125968E0,1.1080707E0,1.1856218E1,1.5310493E0,1.8858507E0,1.359378E0,1.6167097E0,1.4956567E0,1.0159669E0,1.1031888E0,1.0836357E0,2.0809631E0],"tree_param":{"num_deleted":"0","num_feature":"6","num_nodes":"53","size_leaf_vector":"1"}},{"base_weights":[-1.4099038E-2,-6.932141E-1,2.5708982E-1,-1.0197914E0,2.043834E-1,-6.729566E-1,4.9949798E-1,-1.5427631E-1,-1.1375792E0,-1.8040033E-1,6.3761604E-1,-2.1479301E-1,2.9990175E-1,9.1084224E-1,1.5258282E-1,-1.3819508E-1,1.0060078E-1,-2.357147E-1,-7.177936E-2,-4.182055E-2,8.728169E-1,-7.401249E-2,1.7874031E-1,4.2269772E-1,1.0925347E0,-1.8848288E-1,9.4389445E-1,2.0331517E-1,4.3954726E-2,-1.24172226E-1,8.07055E-1,2.3740855E-1,5.7681598E-2,9.017663E-1,-7.6622206E-1,-5.9109847E-3,2.2445977E-1,2.0191167E-1,-4.968733E-3,2.2629379E-1,-3.1378563E-2,-1.9445794E-2,-2.562253E-1],"categories":[0,1,3,4,5,6,7,1,3,4,6,1,0,1,1,0,1,2,1,3,6],"categories_nodes":[3,6,14,20,24,25,34],"categories_segments":[0,7,11,12,14,15,18],"categories_sizes":[7,4,1,2,1,3,3],"default_left":[0,1,0,0,0,1,0,0,1,0,0,0,0,1,1,0,0,0,0,0,1,0,0,1,1,0,0,0,0,0,0,0,0,0,1,0,0,0,0,0,0,0,0],"id":5,"left_children":[1,3,5,7,9,11,13,15,17,-1,19,-1,21,23,25,-1,-1,-1,-1,-1,27,-1,-1,29,31,33,35,-1,-1,-1,37,-1,-1,39,41,-1,-1,-1,-1,-1,-1,-1,-1],"loss_changes":[1.4726001E1,6.8955555E0,1.3227255E1,1.5467587E0,3.891465E0,5.1003275E0,6.4154835E0,1.4695398E0,4.6678543E-2,0E0,1.2893345E0,0E0,2.0639253E0,1.3841419E0,7.226943E0,0E0,0E0,0E0,0E0,0E0,2.0306826E-1,0E0,0E0,3.4196897E0,7.6236916E-1,1.2712288E1,1.4282613E0,0E0,0E0,0E0,9.941938E-1,0E0,0E0,1.8967466E0,4.3587723E0,0E0,0E0,0E0,0E0,0E0,0E0,0E0,0E0],"parents":[2147483647,0,0,1,1,2,2,3,3,4,4,5,5,6,6,7,7,8,8,10,10,12,12,13,13,14,14,20,20,23,23,24,24,25,25,26,26,30,30,33,33,34,34],"right_children":[2,4,6,8,10,12,14,16,18,-1,20,-1,22,24,26,-1,-1,-1,-1,-1,28,-1,-1,30,32,34,36,-1,-1,-1,38,-1,-1,40,42,-1,-1,-1,-1,-1,-1,-1,-1],"split_conditions":[-5.183214E-1,4.3904296E-1,-7.6414394E-1,1E-45,-1.6016098E0,6.021169E-1,1E-45,-2.1673147E-1,1.2966034E0,-1.8040033E-1,-9.727011E-1,-2.1479301E-1,-1.2348258E0,-4.7063765E-1,1E-45,-1.3819508E-1,1.0060078E-1,-2.357147E-1,-7.177936E-2,-4.182055E-2,1E-45,-7.401249E-2,1.7874031E-1,1.7466596E-1,1E-45,1E-45,-1.0183884E-1,2.0331517E-1,4.3954726E-2,-1.24172226E-1,1.5602595E0,2.3740855E-1,5.7681598E-2,2.6008792E0,1E-45,-5.9109847E-3,2.2445977E-1,2.0191167E-1,-4.968733E-3,2.2629379E-1,-3.1378563E-2,-1.9445794E-2,-2.562253E-1],"split_indices":[2,0,0,5,2,2,5,0,4,0,4,0,0,0,1,0,0,0,0,0,3,0,0,2,3,3,2,0,0,0,4,0,0,2,5,0,0,0,0,0,0,0,0],"split_type":[0,0,0,1,0,0,1,0,0,0,0,0,0,0,1,0,0,0,0,0,1,0,0,0,1,1,0,0,0,0,0,0,0,0,1,0,0,0,0,0,0,0,0],"sum_hessian":[7.799172E1,2.1812454E1,5.6179268E1,1.5893654E1,5.9188E0,1.1247997E1,4.493127E1,2.1805515E0,1.3713102E1,1.3610187E0,4.557781E0,7.891304E0,3.356693E0,1.9813025E1,2.5118248E1,1.1721629E0,1.0083888E0,1.2539408E1,1.1736947E0,1.014948E0,3.542833E0,1.7542366E0,1.6024565E0,6.276552E0,1.3536472E1,1.8085129E1,7.0331187E0,2.4473968E0,1.0954365E0,1.5238531E0,4.752699E0,1.1686753E1,1.8497189E0,6.069863E0,1.2015265E1,1.2185475E0,5.8145714E0,3.650519E0,1.10218E0,4.9311504E0,1.1387122E0,5.742766E0,6.2725E0],"tree_param":{"num_deleted":"0","num_feature":"6","num_nodes":"43","size_leaf_vector":"1"}},{"base_weights":[-1.0469986E-2,-3.258391E-1,4.9012083E-1,-6.922306E-1,4.3460822E-1,-3.2484666E-1,7.3868793E-1,-9.8932934E-1,-4.137153E-1,-5.209795E-1,6.541092E-1,-6.397664E-1,1.156274E-1,2.195292E-1,3.647778E-1,-2.096713E-1,-6.725219E-2,-7.6280737E-1,1.3953218E-1,2.2063658E-2,-1.678971E-1,7.7509946E-1,-4.1948374E-2,-1.9132775E-1,-1.7679195E-1,-1.1956338E-1,2.108845E-1,-2.1255228E-1,-9.282698E-1,-4.065644E-1,1.6916946E-1,9.65723E-1,-5.3301066E-2,-1.683052E-1,1.0844167E-1,1.7566662E-1,-6.727781E-1,-1.249653E-1,8.8971846E-2,-5.1481593E-2,-1.9783723E-1,4.2215336E-2,-1.2408095E-1,7.15157E-2,2.130332E-1,8.288631E-2,-9.7725056E-2,1.7324723E-2,-2.073025E-1],"categories":[1,3,4,6,0,1,1,0,2,3,4,1,3,0,1,2,0,0,1,2,3,4,5,6],"categories_nodes":[6,9,14,17,21,25,32,36],"categories_segments":[0,4,6,7,11,13,16,17],"categories_sizes":[4,2,1,4,2,3,1,7],"default_left":[1,1,0,0,0,0,0,1,1,0,0,0,0,0,0,0,0,1,1,0,0,1,0,0,0,0,0,0,0,0,0,0,0,0,0,0,1,0,0,0,0,0,0,0,0,0,0,0,0],"id":6,"left_children":[1,3,5,7,9,11,13,15,17,19,21,23,-1,-1,25,-1,-1,27,29,-1,-1,31,-1,-1,33,35,-1,37,39,41,-1,43,45,-1,-1,-1,47,-1,-1,-1,-1,-1,-1,-1,-1,-1,-1,-1,-1],"loss_changes":[1.1611071E1,1.2867129E1,6.000088E0,2.141158E0,3.5456061E0,2.4572008E0,2.565073E0,1.9467735E-1,3.5109208E0,7.784093E-1,1.507544E0,6.9891214E-1,0E0,0E0,4.241091E0,0E0,0E0,8.0079603E-1,3.3004122E0,0E0,0E0,1.8675394E0,0E0,0E0,2.1916544E0,5.0819364E0,0E0,1.3163826E0,7.766819E-2,7.910938E-1,0E0,1.8767834E-1,8.335103E-1,0E0,0E0,0E0,1.6918511E0,0E0,0E0,0E0,0E0,0E0,0E0,0E0,0E0,0E0,0E0,0E0,0E0],"parents":[2147483647,0,0,1,1,2,2,3,3,4,4,5,5,6,6,7,7,8,8,9,9,10,10,11,11,14,14,17,17,18,18,21,21,24,24,25,25,27,27,28,28,29,29,31,31,32,32,36,36],"right_children":[2,4,6,8,10,12,14,16,18,20,22,24,-1,-1,26,-1,-1,28,30,-1,-1,32,-1,-1,34,36,-1,38,40,42,-1,44,46,-1,-1,-1,48,-1,-1,-1,-1,-1,-1,-1,-1,-1,-1,-1,-1],"split_conditions":[5.8925588E-2,3.6795408E-1,-7.958864E-1,-4.796558E-1,-1.2348258E0,1.3645319E0,1E-45,1.7466596E-1,-4.699571E-1,1E-45,1.5602595E0,-1.2882828E0,1.156274E-1,2.195292E-1,1E-45,-2.096713E-1,-6.725219E-2,1E-45,-8.153897E-2,2.2063658E-2,-1.678971E-1,1E-45,-4.1948374E-2,-1.9132775E-1,3.7642553E-1,1E-45,2.108845E-1,4.5758516E-2,-8.3867455E-1,-2.0829876E-1,1.6916946E-1,-6.6716063E-1,1E-45,-1.683052E-1,1.0844167E-1,1.7566662E-1,1E-45,-1.249653E-1,8.8971846E-2,-5.1481593E-2,-1.9783723E-1,4.2215336E-2,-1.2408095E-1,7.15157E-2,2.130332E-1,8.288631E-2,-9.7725056E-2,1.7324723E-2,-2.073025E-1],"split_indices":[0,2,2,0,0,0,5,2,2,5,4,2,0,0,1,0,0,3,4,0,0,5,0,0,0,3,0,0,4,0,0,4,1,0,0,0,5,0,0,0,0,0,0,0,0,0,0,0,0],"split_type":[0,0,0,0,0,0,1,0,0,1,0,0,0,0,1,0,0,1,0,0,0,1,0,0,0,1,0,0,0,0,0,0,1,0,0,0,1,0,0,0,0,0,0,0,0,0,0,0,0],"sum_hessian":[7.15363E1,4.4101635E1,2.7434666E1,2.9822533E1,1.4279102E1,6.340252E0,2.1094416E1,1.3194982E1,1.6627552E1,2.41071E0,1.1868392E1,4.9169426E0,1.4233093E0,9.774855E0,1.131956E1,1.1546114E1,1.6488681E0,9.962537E0,6.665015E0,1.0275946E0,1.3831154E0,1.0500447E1,1.3679446E0,2.2860317E0,2.6309106E0,7.1351423E0,4.184418E0,2.8313408E0,7.131196E0,3.9981673E0,2.666848E0,8.401424E0,2.0990226E0,1.2784967E0,1.3524139E0,2.335195E0,4.799947E0,1.7705584E0,1.0607824E0,1.028632E0,6.102564E0,1.0315721E0,2.9665952E0,1.8266081E0,6.5748167E0,1.0349824E0,1.0640402E0,1.8012213E0,2.9987257E0],"tree_param":{"num_deleted":"0","num_feature":"6","num_nodes":"49","size_leaf_vector":"1"}},{"base_weights":[-1.0036414E-2,-5.916257E-1,2.1922252E-1,-2.17876E-1,-5.37324E-2,-7.213518E-1,3.8588125E-1,-1.5804224E-1,3.2473657E-1,-1.9495045E-1,8.807806E-2,8.6860716E-1,1.18977115E-1,7.8973156E-1,-3.078476E-1,3.0375132E-1,1.0497973E0,-3.2942882E-1,6.8913877E-1,2.0524459E-1,4.8778E-3,-1.368705E-1,6.165796E-2,-8.574112E-2,7.517563E-1,2.1970809E-1,6.253857E-2,2.7329063E-1,-2.2867997E-1,-4.918492E-2,8.366204E-1,2.0798694E-1,1.8888013E-2,-6.87662E-2,1.2147503E-1,4.6311628E-2,1.8976651E-1],"categories":[0,1,2,0,1,1,3,4,6],"categories_nodes":[6,8,12,17],"categories_segments":[0,3,5,6],"categories_sizes":[3,2,1,3],"default_left":[0,0,0,0,0,1,0,0,0,0,0,1,0,0,1,0,1,1,0,0,0,0,0,0,1,0,0,0,0,0,1,0,0,0,0,0,0],"id":7,"left_children":[1,3,5,-1,7,9,11,-1,13,-1,-1,15,17,19,21,23,25,27,29,-1,-1,-1,-1,-1,31,-1,-1,33,-1,-1,35,-1,-1,-1,-1,-1,-1],"loss_changes":[9.015614E0,5.0588093E0,7.885762E0,0E0,3.1103191E0,2.6822789E0,5.2921953E0,0E0,2.4408526E0,0E0,0E0,1.1908951E0,7.4177513E0,8.051405E-1,1.1121857E0,1.9596672E0,4.3153763E-2,8.368292E0,1.95786E0,0E0,0E0,0E0,0E0,0E0,5.570593E-1,0E0,0E0,2.320352E0,0E0,0E0,5.4082155E-1,0E0,0E0,0E0,0E0,0E0,0E0],"parents":[2147483647,0,0,1,1,2,2,4,4,5,5,6,6,8,8,11,11,12,12,13,13,14,14,15,15,16,16,17,17,18,18,24,24,27,27,30,30],"right_children":[2,4,6,-1,8,10,12,-1,14,-1,-1,16,18,20,22,24,26,28,30,-1,-1,-1,-1,-1,32,-1,-1,34,-1,-1,36,-1,-1,-1,-1,-1,-1],"split_conditions":[-5.183214E-1,1.887786E-1,-1.0225068E0,-2.17876E-1,-1.4402752E0,9.520401E-1,1E-45,-1.5804224E-1,1E-45,-1.9495045E-1,8.807806E-2,-2.5600532E-1,1E-45,-7.4272215E-1,8.644362E-1,-1.1835896E-1,1.0602816E0,1E-45,4.034169E-2,2.0524459E-1,4.8778E-3,-1.368705E-1,6.165796E-2,-8.574112E-2,5.1952326E-1,2.1970809E-1,6.253857E-2,-1.5682112E-2,-2.2867997E-1,-4.918492E-2,-8.1336427E-1,2.0798694E-1,1.8888013E-2,-6.87662E-2,1.2147503E-1,4.6311628E-2,1.8976651E-1],"split_indices":[2,0,0,0,2,2,3,0,5,0,0,2,1,2,0,4,4,5,2,0,0,0,0,0,4,0,0,0,0,0,0,0,0,0,0,0,0],"split_type":[0,0,0,0,0,0,1,0,1,0,0,0,1,0,0,0,0,1,0,0,0,0,0,0,0,0,0,0,0,0,0,0,0,0,0,0,0],"sum_hessian":[6.5643776E1,1.81132E1,4.7530575E1,8.875104E0,9.238094E0,6.6532445E0,4.087733E1,2.7665782E0,6.4715166E0,5.5940256E0,1.0592184E0,1.37516165E1,2.7125715E1,3.5866492E0,2.8848674E0,3.9898324E0,9.761785E0,1.5420454E1,1.170526E1,2.4795876E0,1.1070616E0,1.721929E0,1.1629385E0,1.5305569E0,2.4592755E0,8.696365E0,1.0654185E0,9.241597E0,6.178857E0,1.5037419E0,1.0201519E1,1.3050346E0,1.1542408E0,3.2356057E0,6.005992E0,2.0752234E0,8.126295E0],"tree_param":{"num_deleted":"0","num_feature":"6","num_nodes":"37","size_leaf_vector":"1"}},{"base_weights":[-7.7836243E-3,-2.7911386E-1,4.3276748E-1,-6.055394E-1,3.7410152E-1,-2.640443E-1,6.575485E-1,-7.971869E-1,-2.5001064E-1,-4.274668E-1,5.645385E-1,-5.696277E-1,1.0556108E-1,2.0295505E-1,3.1000876E-1,-2.0325541E-1,-4.0345937E-1,2.5096685E-1,-6.6914475E-1,1.5358369E-2,-1.4156073E-1,6.90027E-1,-4.5393553E-2,-1.6602644E-1,-1.6523218E-1,-1.0695408E-1,1.8786918E-1,-1.656084E-1,-7.45575E-2,1.6167374E-1,-2.96853E-1,-1.8680064E-1,-1.4356586E-2,1.8241069E-1,1.7359404E-1,-1.4193968E-1,8.720924E-2,4.9440703E-1,-7.522676E-1,1.0181884E-1,-8.327525E-2,-1.5316005E-1,6.51137E-2,-5.3363442E-2,1.3842955E-1,1.5359557E-1,-7.39135E-4,-3.267194E-2,-1.851166E-1],"categories":[1,3,4,6,0,2,1,0,2,0,1,2,1,0,1,2],"categories_nodes":[6,8,14,21,25,34,37],"categories_segments":[0,4,6,7,9,12,13],"categories_sizes":[4,2,1,2,3,1,3],"default_left":[1,1,0,1,0,0,0,0,0,0,0,0,0,0,0,0,0,0,0,0,0,1,0,0,0,1,0,0,1,0,1,0,0,0,0,0,0,0,0,0,0,0,0,0,0,0,0,0,0],"id":8,"left_children":[1,3,5,7,9,11,13,15,17,19,21,23,-1,-1,25,-1,27,29,31,-1,-1,33,-1,-1,35,37,-1,-1,39,-1,41,-1,-1,-1,43,-1,-1,45,47,-1,-1,-1,-1,-1,-1,-1,-1,-1,-1],"loss_changes":[7.4477787E0,8.444513E0,3.894321E0,1.5777369E0,2.2960258E0,1.8752828E0,1.9508247E0,1.0123539E0,2.3919318E0,5.0008327E-1,1.2797098E0,4.0814507E-1,0E0,0E0,2.9053535E0,0E0,9.9307E-1,1.9353034E0,8.885243E-1,0E0,0E0,9.891424E-1,0E0,0E0,1.3821293E0,3.2153087E0,0E0,0E0,1.2803637E0,0E0,1.2800982E0,0E0,0E0,0E0,1.1538914E0,0E0,0E0,6.018795E-1,2.5001597E-1,0E0,0E0,0E0,0E0,0E0,0E0,0E0,0E0,0E0,0E0],"parents":[2147483647,0,0,1,1,2,2,3,3,4,4,5,5,6,6,7,7,8,8,9,9,10,10,11,11,14,14,16,16,17,17,18,18,21,21,24,24,25,25,28,28,30,30,34,34,37,37,38,38],"right_children":[2,4,6,8,10,12,14,16,18,20,22,24,-1,-1,26,-1,28,30,32,-1,-1,34,-1,-1,36,38,-1,-1,40,-1,42,-1,-1,-1,44,-1,-1,46,48,-1,-1,-1,-1,-1,-1,-1,-1,-1,-1],"split_conditions":[5.8925588E-2,3.6795408E-1,-7.958864E-1,-8.153897E-2,-1.2348258E0,1.3645319E0,1E-45,5.5135353E-3,1E-45,-1.5829384E0,1.5602595E0,-1.2882828E0,1.0556108E-1,2.0295505E-1,1E-45,-2.0325541E-1,-4.8102713E-1,4.6660525E-1,-1.3370156E-1,1.5358369E-2,-1.4156073E-1,1E-45,-4.5393553E-2,-1.6602644E-1,3.7642553E-1,1E-45,1.8786918E-1,-1.656084E-1,-1.6643444E0,1.6167374E-1,-3.0215183E-1,-1.8680064E-1,-1.4356586E-2,1.8241069E-1,1E-45,-1.4193968E-1,8.720924E-2,1E-45,-7.048235E-1,1.0181884E-1,-8.327525E-2,-1.5316005E-1,6.51137E-2,-5.3363442E-2,1.3842955E-1,1.5359557E-1,-7.39135E-4,-3.267194E-2,-1.851166E-1],"split_indices":[0,2,2,4,0,0,5,2,3,0,4,2,0,0,1,0,0,4,0,0,0,3,0,0,0,3,0,0,4,0,2,0,0,0,1,0,0,3,4,0,0,0,0,0,0,0,0,0,0],"split_type":[0,0,0,0,0,0,1,0,1,0,0,0,0,0,1,0,0,0,0,0,0,1,0,0,0,1,0,0,0,0,0,0,0,0,1,0,0,1,0,0,0,0,0,0,0,0,0,0,0],"sum_hessian":[6.0295834E1,3.7541134E1,2.2754698E1,2.5080742E1,1.2460391E1,5.5073786E0,1.724732E1,1.5489099E1,9.591644E0,2.1531022E0,1.0307289E1,4.176326E0,1.3310529E0,7.55838E0,9.68894E0,8.935667E0,6.553431E0,4.552005E0,5.03964E0,1.0287324E0,1.1243697E0,9.007426E0,1.2998629E0,1.8997607E0,2.276565E0,6.3270497E0,3.36189E0,2.1981812E0,4.35525E0,2.0205264E0,2.5314782E0,3.101118E0,1.9385216E0,5.7635007E0,3.2439253E0,1.1000961E0,1.176469E0,3.3961046E0,2.9309454E0,1.4278476E0,2.9274023E0,1.3123592E0,1.2191191E0,2.0166388E0,1.2272866E0,1.842403E0,1.5537015E0,1.1081439E0,1.8228015E0],"tree_param":{"num_deleted":"0","num_feature":"6","num_nodes":"49","size_leaf_vector":"1"}},{"base_weights":[-9.4891945E-3,4.443556E-1,-2.3545162E-1,-1.4874819E-1,8.114503E-1,-5.7096815E-1,1.2909636E-1,-1.8546407E-1,5.336952E-1,1.432917E-1,9.4176453E-1,-6.639725E-1,8.983922E-2,3.9649773E-1,-3.1861633E-1,8.460532E-3,6.4873284E-1,-7.1592584E-2,1.18798666E-1,4.613141E-1,2.1181999E-1,-8.8584685E-1,-3.6368906E-1,-2.689744E-1,6.11136E-1,8.3305284E-2,-1.909187E-1,3.426431E-2,1.6758975E-1,1.4515677E-1,-1.558154E-3,-1.9790605E-1,-6.275529E-2,-5.80737E-1,2.844902E-1,-1.5002568E-1,8.652278E-2,6.817529E-1,4.2205896E-2,-7.911909E-2,3.843606E-1,-1.7836897E-1,-4.386831E-2,-5.5458646E-2,1.4664689E-1,4.3965176E-2,2.0385256E-1,1.2341126E-1,-2.0303335E-2],"categories":[0,1,3,4,6,0,2,0,0,1,0,1,0,1,2,4,5,6],"categories_nodes":[0,6,14,16,19,37],"categories_segments":[0,5,7,8,10,12],"categories_sizes":[5,2,1,2,2,6],"default_left":[0,0,1,0,1,1,1,0,0,1,0,0,0,0,1,0,0,0,0,0,0,1,0,0,0,1,0,0,0,0,0,0,0,1,0,0,0,1,0,0,0,0,0,0,0,0,0,0,0],"id":9,"left_children":[1,3,5,7,9,11,13,-1,15,17,19,21,-1,23,25,-1,27,-1,-1,29,-1,31,33,35,37,39,-1,-1,-1,-1,-1,-1,-1,41,43,-1,-1,45,-1,-1,47,-1,-1,-1,-1,-1,-1,-1,-1],"loss_changes":[5.884237E0,4.2747426E0,4.755645E0,4.8195767E0,9.046736E-1,2.2069912E0,2.420293E0,0E0,2.5362468E-1,9.1931874E-1,6.4554214E-2,9.3305683E-1,0E0,1.9415213E0,2.0526955E0,0E0,2.1408892E-1,0E0,0E0,4.6439445E-1,0E0,2.9084444E-1,1.5301555E0,1.5832076E0,1.3056898E-1,9.6661776E-1,0E0,0E0,0E0,0E0,0E0,0E0,0E0,6.585374E-1,9.860867E-1,0E0,0E0,9.9320316E-1,0E0,0E0,5.122022E-1,0E0,0E0,0E0,0E0,0E0,0E0,0E0,0E0],"parents":[2147483647,0,0,1,1,2,2,3,3,4,4,5,5,6,6,8,8,9,9,10,10,11,11,13,13,14,14,16,16,19,19,21,21,22,22,23,23,24,24,25,25,33,33,34,34,37,37,40,40],"right_children":[2,4,6,8,10,12,14,-1,16,18,20,22,-1,24,26,-1,28,-1,-1,30,-1,32,34,36,38,40,-1,-1,-1,-1,-1,-1,-1,42,44,-1,-1,46,-1,-1,48,-1,-1,-1,-1,-1,-1,-1,-1],"split_conditions":[1E-45,-1.632686E-2,-2.0289683E-1,1.7742614E-1,-1.8297404E0,1.159675E0,1E-45,-1.8546407E-1,-1.1521344E0,5.77451E-1,-2.627648E-1,-4.796558E-1,8.983922E-2,-9.660681E-1,1E-45,8.460532E-3,1E-45,-7.1592584E-2,1.18798666E-1,1E-45,2.1181999E-1,6.021169E-1,1.9066188E0,1.1787796E0,8.7583274E-1,-1.1036365E0,-1.909187E-1,3.426431E-2,1.6758975E-1,1.4515677E-1,-1.558154E-3,-1.9790605E-1,-6.275529E-2,-3.689031E-2,-3.8508803E-2,-1.5002568E-1,8.652278E-2,1E-45,4.2205896E-2,-7.911909E-2,4.0746182E-1,-1.7836897E-1,-4.386831E-2,-5.5458646E-2,1.4664689E-1,4.3965176E-2,2.0385256E-1,1.2341126E-1,-2.0303335E-2],"split_indices":[5,2,0,0,0,2,3,0,2,2,4,0,0,2,1,0,3,0,0,3,0,2,4,0,0,2,0,0,0,0,0,0,0,2,2,0,0,5,0,0,0,0,0,0,0,0,0,0,0],"split_type":[1,0,0,0,0,0,1,0,0,0,0,0,0,0,1,0,1,0,0,1,0,0,0,0,0,0,0,0,0,0,0,0,0,0,0,0,0,1,0,0,0,0,0,0,0,0,0,0,0],"sum_hessian":[5.5357944E1,1.8079277E1,3.7278667E1,7.1393085E0,1.0939968E1,1.9117443E1,1.8161226E1,3.1671786E0,3.9721298E0,2.1281114E0,8.811856E0,1.7840176E1,1.2772673E0,1.1441848E1,6.719378E0,1.0129519E0,2.959178E0,1.1049688E0,1.0231426E0,2.697608E0,6.1142483E0,9.138131E0,8.7020445E0,2.7286608E0,8.713187E0,4.6498203E0,2.069558E0,1.3807732E0,1.5784048E0,1.3751597E0,1.3224483E0,7.1182647E0,2.019866E0,6.5970273E0,2.1050177E0,1.5775679E0,1.1510928E0,6.807728E0,1.9054592E0,1.6735725E0,2.9762478E0,2.7563972E0,3.84063E0,1.1044382E0,1.0005794E0,3.571278E0,3.23645E0,1.8298937E0,1.1463541E0],"tree_param":{"num_deleted":"0","num_feature":"6","num_nodes":"49","size_leaf_vector":"1"}},{"base_weights":[-5.2126725E-3,-2.3767893E-1,3.778374E-1,-6.131314E-1,1.8765925E-1,-1.1784705E-1,5.0941235E-1,-6.9647866E-1,1.7240582E-2,6.0290164E-1,-1.4228691E-1,7.2338164E-1,5.2336037E-2,6.254746E-2,-8.194067E-1,7.6670367E-1,-4.152531E-2,-3.1136313E-1,1.2623285E-1,7.981196E-1,-5.2451133E-3,-3.86262E-1,1.2947701E-1,7.560727E-2,-6.0662646E-2,-4.5237932E-1,-9.551967E-1,1.8328783E-1,3.6731463E-2,-1.6030161E-1,-7.546604E-2,3.697205E-2,1.7940861E-1,2.0831836E-2,-5.87485E-1,-1.5937632E-1,1.3706229E-2,-2.0386541E-1,-5.2849483E-2,-8.789831E-2,1.23392396E-1,-2.8330991E-2,-1.4748389E-1],"categories":[0,1,3,6,0,2,0,1,3,4,5,6,7,0,1,0,3,5,6,0,0,1,2,3,4,1],"categories_nodes":[4,6,7,9,12,14,15,21,30],"categories_segments":[0,4,6,13,14,15,19,20,25],"categories_sizes":[4,2,7,1,1,4,1,5,1],"default_left":[1,1,0,1,0,0,1,0,0,1,0,1,0,1,0,1,0,0,0,0,0,0,0,0,0,0,1,0,0,0,0,0,0,0,0,0,0,0,0,0,0,0,0],"id":10,"left_children":[1,3,5,7,9,-1,11,13,-1,15,17,19,21,23,25,27,-1,29,-1,31,-1,33,-1,-1,-1,35,37,-1,-1,-1,39,-1,-1,-1,41,-1,-1,-1,-1,-1,-1,-1,-1],"loss_changes":[4.770256E0,5.4367824E0,2.87525E0,1.1053996E0,2.331326E0,0E0,1.756803E0,1.5567231E0,0E0,1.1480136E0,1.4966614E0,7.1681404E-1,2.058481E0,4.8148158E-1,2.6348114E-1,3.911991E-1,0E0,9.602647E-1,0E0,5.213208E-1,0E0,5.1664627E-1,0E0,0E0,0E0,1.0719154E0,1.4220524E-1,0E0,0E0,0E0,2.0516598E0,0E0,0E0,0E0,1.2436104E-1,0E0,0E0,0E0,0E0,0E0,0E0,0E0,0E0],"parents":[2147483647,0,0,1,1,2,2,3,3,4,4,6,6,7,7,9,9,10,10,11,11,12,12,13,13,14,14,15,15,17,17,19,19,21,21,25,25,26,26,30,30,34,34],"right_children":[2,4,6,8,10,-1,12,14,-1,16,18,20,22,24,26,28,-1,30,-1,32,-1,34,-1,-1,-1,36,38,-1,-1,-1,40,-1,-1,-1,42,-1,-1,-1,-1,-1,-1,-1,-1],"split_conditions":[5.8925588E-2,1.1206079E-1,-1.4402752E0,1.1739321E0,1E-45,-1.1784705E-1,1E-45,1E-45,1.7240582E-2,1E-45,1.3860914E0,1.286427E0,1E-45,-5.597993E-1,1E-45,1E-45,-4.152531E-2,-1.0452534E0,1.2623285E-1,2.3218104E-1,-5.2451133E-3,1E-45,1.2947701E-1,7.560727E-2,-6.0662646E-2,-2.9779088E-1,-3.689031E-2,1.8328783E-1,3.6731463E-2,-1.6030161E-1,1E-45,3.697205E-2,1.7940861E-1,2.0831836E-2,-4.2226472E-1,-1.5937632E-1,1.3706229E-2,-2.0386541E-1,-5.2849483E-2,-8.789831E-2,1.23392396E-1,-2.8330991E-2,-1.4748389E-1],"split_indices":[0,2,2,4,5,0,3,5,0,3,2,4,1,2,5,1,0,0,0,0,0,5,0,0,0,0,2,0,0,0,1,0,0,0,4,0,0,0,0,0,0,0,0],"split_type":[0,0,0,0,1,0,1,1,0,1,0,0,1,0,1,1,0,0,0,0,0,1,0,0,0,0,0,0,0,0,1,0,0,0,0,0,0,0,0,0,0,0,0],"sum_hessian":[5.156206E1,3.2324444E1,1.923762E1,1.6934546E1,1.5389895E1,1.8873467E0,1.7350273E1,1.5134846E1,1.7997007E0,6.4478736E0,8.942022E0,1.1421122E1,5.9291506E0,2.1779785E0,1.2956867E1,5.4088516E0,1.0390217E0,7.8282137E0,1.113809E0,1.0326794E1,1.0943278E0,3.615279E0,2.3138719E0,1.1516278E0,1.0263509E0,4.668857E0,8.28801E0,3.8486474E0,1.5602044E0,1.7644184E0,6.063795E0,1.8328803E0,8.493914E0,1.1921465E0,2.4231324E0,2.491395E0,2.1774619E0,7.1492014E0,1.1388085E0,4.2137947E0,1.8500006E0,1.0992603E0,1.3238721E0],"tree_param":{"num_deleted":"0","num_feature":"6","num_nodes":"43","size_leaf_vector":"1"}},{"base_weights":[-6.945396E-3,-4.7571635E-1,1.6484112E-1,-1.8853773E-1,-5.1866334E-2,-5.7488054E-1,2.9073805E-1,-1.4786418E-1,2.0278902E-1,-1.580725E-1,3.7473895E-2,7.575497E-1,5.192608E-2,5.9002894E-1,-3.3419454E-1,1.8646447E-1,4.3416563E-2,-2.8915766E-1,5.2407944E-1,1.5189604E-1,1.0771985E-2,-1.1593101E-1,2.2114329E-2,-4.6751183E-2,5.6418777E-2,2.4454091E-1,-2.000846E-1,-7.523755E-2,7.159904E-1,-4.9543094E-2,1.0204996E-1,3.919877E-2,-5.8955025E-2,3.262917E-2,1.7946698E-1],"categories":[0,1,2,0,1,0,1,3,4,6],"categories_nodes":[6,8,11,12,17],"categories_segments":[0,3,5,6,7],"categories_sizes":[3,2,1,1,3],"default_left":[0,0,0,0,0,1,0,0,0,0,0,0,0,0,1,0,1,1,1,0,0,0,0,0,0,0,0,0,1,0,0,0,0,0,0],"id":11,"left_children":[1,3,5,-1,7,9,11,-1,13,-1,-1,15,17,19,21,-1,23,25,27,-1,-1,-1,-1,-1,-1,29,-1,31,33,-1,-1,-1,-1,-1,-1],"loss_changes":[4.039972E0,2.6133008E0,3.5890589E0,0E0,1.5695187E0,1.0810325E0,3.5351653E0,0E0,1.5907779E0,0E0,0E0,1.3047576E0,3.7405357E0,3.4572077E-1,4.4034693E-1,0E0,2.7551955E-1,5.400864E0,1.1698155E0,0E0,0E0,0E0,0E0,0E0,0E0,1.2465254E0,0E0,2.5178832E-1,5.9993505E-1,0E0,0E0,0E0,0E0,0E0,0E0],"parents":[2147483647,0,0,1,1,2,2,4,4,5,5,6,6,8,8,11,11,12,12,13,13,14,14,16,16,17,17,18,18,25,25,27,27,28,28],"right_children":[2,4,6,-1,8,10,12,-1,14,-1,-1,16,18,20,22,-1,24,26,28,-1,-1,-1,-1,-1,-1,30,-1,32,34,-1,-1,-1,-1,-1,-1],"split_conditions":[-5.183214E-1,1.887786E-1,-1.0225068E0,-1.8853773E-1,-1.6016098E0,9.365655E-1,1E-45,-1.4786418E-1,1E-45,-1.580725E-1,3.7473895E-2,1E-45,1E-45,-7.5843745E-1,7.811981E-1,1.8646447E-1,2.7636543E-1,1E-45,-8.1336427E-1,1.5189604E-1,1.0771985E-2,-1.1593101E-1,2.2114329E-2,-4.6751183E-2,5.6418777E-2,-1.5682112E-2,-2.000846E-1,-5.5533435E-2,-2.3202766E-1,-4.9543094E-2,1.0204996E-1,3.919877E-2,-5.8955025E-2,3.262917E-2,1.7946698E-1],"split_indices":[2,0,0,0,2,2,3,0,5,0,0,5,1,2,0,0,2,5,0,0,0,0,0,0,0,0,0,4,2,0,0,0,0,0,0],"split_type":[0,0,0,0,0,0,1,0,1,0,0,1,1,0,0,0,0,1,0,0,0,0,0,0,0,0,0,0,0,0,0,0,0,0,0],"sum_hessian":[4.8194424E1,1.2450439E1,3.5743984E1,5.3414474E0,7.1089916E0,4.6799765E0,3.1064007E1,1.4071367E0,5.701855E0,3.6198053E0,1.060171E0,9.778186E0,2.1285822E1,3.2554433E0,2.4464118E0,7.610185E0,2.168001E0,1.2583253E1,8.702569E0,2.1571896E0,1.0982537E0,1.3809845E0,1.0654273E0,1.0126477E0,1.1553533E0,7.563878E0,5.0193744E0,2.2582517E0,6.444317E0,2.675298E0,4.8885803E0,1.0581656E0,1.2000862E0,2.0609565E0,4.383361E0],"tree_param":{"num_deleted":"0","num_feature":"6","num_nodes":"35","size_leaf_vector":"1"}},{"base_weights":[-9.7782E-3,3.655049E-1,-1.9150624E-1,-1.4368875E-1,6.8468463E-1,-4.5779008E-1,8.679431E-2,-1.6444181E-1,4.1668004E-1,1.4583105E-1,8.628446E-1,-5.383446E-1,7.2644345E-2,3.2376567E-1,-2.8833976E-1,1.3842459E-1,9.289021E-2,-8.106261E-2,1.1285708E-1,6.28516E-2,1.9594337E-1,-6.5025604E-1,-1.8525805E-2,-2.1611868E-1,5.000109E-1,5.202864E-2,-1.6599695E-1,-4.059686E-2,6.696083E-2,-1.2239193E-3,-7.531711E-1,-9.430857E-2,6.7190334E-2,-1.2901007E-1,7.372186E-2,7.2455466E-1,-7.0019014E-2,-6.7936026E-2,3.1160474E-1,-1.7718686E-1,-6.199455E-2,1.6874792E-1,2.608627E-2,5.564293E-2,-7.282831E-2,1.0580623E-1,-2.2547916E-2],"categories":[0,1,3,4,6,0,2,0,1,3,4,5,6,7,0,0,1,0,1,2,3,3,1],"categories_nodes":[0,6,8,14,16,21,24,30],"categories_segments":[0,5,7,14,15,17,21,22],"categories_sizes":[5,2,7,1,2,4,1,1],"default_left":[0,0,1,0,1,1,1,0,1,1,0,0,0,0,1,0,0,0,0,0,0,0,0,0,1,1,0,0,0,0,1,0,0,0,0,0,1,0,0,0,0,0,0,0,0,0,0],"id":12,"left_children":[1,3,5,7,9,11,13,-1,15,17,19,21,-1,23,25,-1,27,-1,-1,-1,-1,29,31,33,35,37,-1,-1,-1,-1,39,-1,-1,-1,-1,41,43,-1,45,-1,-1,-1,-1,-1,-1,-1,-1],"loss_changes":[3.18785E0,2.578363E0,2.3709564E0,2.8923738E0,7.912898E-1,1.2692747E0,1.5354552E0,0E0,3.224578E-1,1.0536933E0,1.3937998E-1,8.714652E-1,0E0,1.0988854E0,1.298533E0,0E0,2.9330364E-1,0E0,0E0,0E0,0E0,8.2189083E-1,7.5575715E-1,1.0556452E0,1.0941751E0,6.26702E-1,0E0,0E0,0E0,0E0,3.5744476E-1,0E0,0E0,0E0,0E0,3.1031466E-1,4.3066567E-1,0E0,3.920212E-1,0E0,0E0,0E0,0E0,0E0,0E0,0E0,0E0],"parents":[2147483647,0,0,1,1,2,2,3,3,4,4,5,5,6,6,8,8,9,9,10,10,11,11,13,13,14,14,16,16,21,21,22,22,23,23,24,24,25,25,30,30,35,35,36,36,38,38],"right_children":[2,4,6,8,10,12,14,-1,16,18,20,22,-1,24,26,-1,28,-1,-1,-1,-1,30,32,34,36,38,-1,-1,-1,-1,40,-1,-1,-1,-1,42,44,-1,46,-1,-1,-1,-1,-1,-1,-1,-1],"split_conditions":[1E-45,-1.632686E-2,-2.0289683E-1,1.7742614E-1,-1.0225068E0,1.159675E0,1E-45,-1.6444181E-1,1E-45,5.77451E-1,-3.3313537E-1,2.592857E0,7.2644345E-2,-9.660681E-1,1E-45,1.3842459E-1,1E-45,-8.106261E-2,1.1285708E-1,6.28516E-2,1.9594337E-1,1E-45,-4.6684554E-1,1.1787796E0,1E-45,-1.1036365E0,-1.6599695E-1,-4.059686E-2,6.696083E-2,-1.2239193E-3,1E-45,-9.430857E-2,6.7190334E-2,-1.2901007E-1,7.372186E-2,2.6008792E0,-5.4249182E-2,-6.7936026E-2,4.0746182E-1,-1.7718686E-1,-6.199455E-2,1.6874792E-1,2.608627E-2,5.564293E-2,-7.282831E-2,1.0580623E-1,-2.2547916E-2],"split_indices":[5,2,0,0,0,2,3,0,5,2,4,4,0,2,1,0,3,0,0,0,0,3,0,0,5,2,0,0,0,0,1,0,0,0,0,2,4,0,0,0,0,0,0,0,0,0,0],"split_type":[1,0,0,0,0,0,1,0,1,0,0,0,0,0,1,0,1,0,0,0,0,1,0,0,1,0,0,0,0,0,1,0,0,0,0,0,0,0,0,0,0,0,0,0,0,0,0],"sum_hessian":[4.4716694E1,1.425914E1,3.0457554E1,5.7060256E0,8.553115E0,1.5235222E1,1.5222331E1,2.369573E0,3.3364522E0,2.5770974E0,5.9760175E0,1.4187491E1,1.047731E0,9.413057E0,5.8092737E0,1.1881464E0,2.148306E0,1.125764E0,1.4513333E0,1.6974168E0,4.278601E0,1.1467691E1,2.7198E0,2.2609503E0,7.1521072E0,4.122591E0,1.6866827E0,1.0387629E0,1.1095428E0,1.7257614E0,9.74193E0,1.0489761E0,1.6708238E0,1.2447163E0,1.016234E0,4.936472E0,2.215635E0,1.520106E0,2.602485E0,6.727656E0,3.0142736E0,3.7617073E0,1.1747646E0,1.0392615E0,1.1763736E0,1.5576636E0,1.0448214E0],"tree_param":{"num_deleted":"0","num_feature":"6","num_nodes":"47","size_leaf_vector":"1"}},{"base_weights":[-6.5289503E-3,-4.2786664E-1,1.4485462E-1,-1.7538674E-1,-6.3925564E-2,-5.5760056E-1,2.506796E-1,-1.3749193E-1,1.7079765E-1,-1.5948834E-1,2.6885195E-2,6.444931E-1,4.435422E-2,4.9775565E-1,-2.8787684E-1,1.6117322E-1,1.2159322E-2,-2.5687703E-1,4.6255973E-1,1.3065557E-1,4.790358E-3,-1.04331985E-1,2.2566725E-2,2.800236E-2,-2.430154E-2,2.0210466E-1,-1.7911415E-1,-4.7231805E-2,6.022377E-1,-3.1592403E-2,1.06305495E-1,1.5179734E-1,5.4039847E-2],"categories":[0,1,2,0,1,0,1,3,4,6,0,1,2,5],"categories_nodes":[6,8,11,12,17,28],"categories_segments":[0,3,5,6,7,10],"categories_sizes":[3,2,1,1,3,4],"default_left":[0,0,0,0,0,1,0,0,0,0,0,0,0,0,1,0,0,1,0,0,0,0,0,0,0,1,0,0,0,0,0,0,0],"id":13,"left_children":[1,3,5,-1,7,9,11,-1,13,-1,-1,15,17,19,21,-1,23,25,27,-1,-1,-1,-1,-1,-1,29,-1,-1,31,-1,-1,-1,-1],"loss_changes":[2.811786E0,1.8476686E0,2.5530071E0,0E0,1.2169443E0,8.641194E-1,2.3198738E0,0E0,1.0819353E0,0E0,0E0,9.9661255E-1,2.6433954E0,2.806186E-1,3.6223054E-1,0E0,6.863307E-2,3.7844214E0,9.9598026E-1,0E0,0E0,0E0,0E0,0E0,0E0,1.0291003E0,0E0,0E0,1.890285E-1,0E0,0E0,0E0,0E0],"parents":[2147483647,0,0,1,1,2,2,4,4,5,5,6,6,8,8,11,11,12,12,13,13,14,14,16,16,17,17,18,18,25,25,28,28],"right_children":[2,4,6,-1,8,10,12,-1,14,-1,-1,16,18,20,22,-1,24,26,28,-1,-1,-1,-1,-1,-1,30,-1,-1,32,-1,-1,-1,-1],"split_conditions":[-5.183214E-1,1.887786E-1,-1.0707526E0,-1.7538674E-1,-1.6016098E0,9.365655E-1,1E-45,-1.3749193E-1,1E-45,-1.5948834E-1,2.6885195E-2,1E-45,1E-45,-7.5843745E-1,7.811981E-1,1.6117322E-1,-1.7020414E-2,1E-45,4.034169E-2,1.3065557E-1,4.790358E-3,-1.04331985E-1,2.2566725E-2,2.800236E-2,-2.430154E-2,3.692974E-1,-1.7911415E-1,-4.7231805E-2,1E-45,-3.1592403E-2,1.06305495E-1,1.5179734E-1,5.4039847E-2],"split_indices":[2,0,0,0,2,2,3,0,5,0,0,5,1,2,0,0,0,5,2,0,0,0,0,0,0,2,0,0,5,0,0,0,0],"split_type":[0,0,0,0,0,0,1,0,1,0,0,1,1,0,0,0,0,1,0,0,0,0,0,0,0,0,0,0,1,0,0,0,0],"sum_hessian":[4.211151E1,1.0648299E1,3.1463211E1,4.135704E0,6.512595E0,3.5604224E0,2.7902788E1,1.2536112E0,5.258984E0,2.5309298E0,1.0294925E0,8.862759E0,1.904003E1,3.0205991E0,2.2383852E0,6.842186E0,2.0205724E0,1.129213E1,7.747899E0,1.9889492E0,1.0316498E0,1.2230147E0,1.0153705E0,1.0084875E0,1.0120851E0,6.9681816E0,4.323949E0,1.1757319E0,6.5721674E0,3.577921E0,3.390261E0,3.5910585E0,2.9811087E0],"tree_param":{"num_deleted":"0","num_feature":"6","num_nodes":"33","size_leaf_vector":"1"}},{"base_weights":[-1.0811752E-2,-1.9974905E-1,3.051049E-1,-4.623798E-1,2.8713906E-1,-9.18541E-2,4.450348E-1,-6.396646E-1,-1.4197756E-1,-6.448745E-2,4.463412E-1,7.108499E-1,1.04339235E-1,-1.6750343E-1,-3.323029E-1,-4.4000995E-1,2.2159162E-1,5.8737195E-1,-5.1830944E-2,1.5417297E-2,1.6242798E-1,5.667741E-1,-2.9549244E-1,3.1401288E-2,-5.236395E-1,1.4023232E-2,-1.3053952E-1,-6.1470594E-2,1.13558486E-1,1.5707937E-1,3.522978E-1,3.840194E-2,1.3204798E-1,3.220293E-2,-1.3073754E-1,-4.5946394E-3,-1.5915835E-1,3.6498879E-3,1.18297294E-1],"categories":[1,3,6,0,2,0,1,2,3,0,2,3,4,0,0,1,2,3],"categories_nodes":[6,12,17,21,22,24],"categories_segments":[0,3,5,9,13,14],"categories_sizes":[3,2,4,4,1,4],"default_left":[1,1,0,1,0,0,0,0,1,0,0,0,0,0,1,0,0,1,0,0,0,1,1,0,1,0,0,0,0,0,0,0,0,0,0,0,0,0,0],"id":14,"left_children":[1,3,5,7,9,-1,11,13,15,-1,17,19,21,-1,23,25,27,29,-1,-1,-1,31,33,-1,35,-1,-1,-1,-1,-1,37,-1,-1,-1,-1,-1,-1,-1,-1],"loss_changes":[2.472692E0,3.4431763E0,1.864086E0,8.8619995E-1,1.0841174E0,0E0,1.1596391E0,3.777318E-1,9.006669E-1,0E0,9.5827675E-1,4.176252E-1,1.4881852E0,0E0,6.3295484E-1,5.24045E-1,9.07748E-1,5.1850796E-2,0E0,0E0,0E0,1.2494326E-3,8.3914053E-1,0E0,5.893682E-1,0E0,0E0,0E0,0E0,0E0,3.9194125E-1,0E0,0E0,0E0,0E0,0E0,0E0,0E0,0E0],"parents":[2147483647,0,0,1,1,2,2,3,3,4,4,6,6,7,7,8,8,10,10,11,11,12,12,14,14,15,15,16,16,17,17,21,21,22,22,24,24,30,30],"right_children":[2,4,6,8,10,-1,12,14,16,-1,18,20,22,-1,24,26,28,30,-1,-1,-1,32,34,-1,36,-1,-1,-1,-1,-1,38,-1,-1,-1,-1,-1,-1,-1,-1],"split_conditions":[5.8925588E-2,3.6795408E-1,-1.2882828E0,-8.153897E-2,-1.2348258E0,-9.18541E-2,1E-45,5.5135353E-3,-4.699571E-1,-6.448745E-2,1.5602595E0,-9.043689E-1,1E-45,-1.6750343E-1,-1.7207106E0,3.6540458E-1,-4.8102713E-1,1E-45,-5.1830944E-2,1.5417297E-2,1.6242798E-1,1E-45,1E-45,3.1401288E-2,1E-45,1.4023232E-2,-1.3053952E-1,-6.1470594E-2,1.13558486E-1,1.5707937E-1,-2.3792173E-1,3.840194E-2,1.3204798E-1,3.220293E-2,-1.3073754E-1,-4.5946394E-3,-1.5915835E-1,3.6498879E-3,1.18297294E-1],"split_indices":[0,2,2,4,0,0,5,2,2,0,4,2,3,0,4,4,0,3,0,0,0,3,1,0,3,0,0,0,0,0,0,0,0,0,0,0,0,0,0],"split_type":[0,0,0,0,0,0,1,0,0,0,0,0,1,0,0,0,0,1,0,0,0,1,1,0,1,0,0,0,0,0,0,0,0,0,0,0,0,0,0],"sum_hessian":[3.940561E1,2.4888496E1,1.4517113E1,1.6200287E1,8.688209E0,1.8932076E0,1.2623905E1,9.787971E0,6.4123163E0,1.5868632E0,7.101346E0,6.480932E0,6.1429725E0,4.905428E0,4.882543E0,3.4082143E0,3.0041022E0,6.057806E0,1.0435396E0,1.1357406E0,5.345192E0,2.6548784E0,3.4880943E0,1.4229709E0,3.459572E0,1.2001107E0,2.2081037E0,1.2327899E0,1.7713122E0,2.0173464E0,4.0404596E0,1.1396444E0,1.515234E0,1.7756171E0,1.7124771E0,1.600189E0,1.8593831E0,2.135016E0,1.9054439E0],"tree_param":{"num_deleted":"0","num_feature":"6","num_nodes":"39","size_leaf_vector":"1"}},{"base_weights":[-1.0056351E-2,3.3306032E-1,-1.6771656E-1,-5.66518E-2,6.248624E-1,-5.4777896E-1,-1.3947659E-2,-1.2204813E-1,3.9568323E-1,4.565124E-3,1.5230148E-1,-1.5304284E-1,3.3589203E-2,-3.9662394E-1,1.1319651E-1,1.2772028E-1,1.8451495E-2,-4.1441556E-2,5.0556865E-2,-1.3553615E-1,4.444925E-2,-6.399909E-2,5.590453E-1,1.3497008E-1,-2.195411E-1,-6.1044525E-3,1.6884372E-1,3.9649792E-2,-9.900319E-2],"categories":[0,1,3,4,6,0,1,3,4,5,6,7,1,0,1,0,2],"categories_nodes":[0,8,14,22,24],"categories_segments":[0,5,12,13,15],"categories_sizes":[5,7,1,2,2],"default_left":[0,0,0,0,1,1,0,0,1,0,0,0,0,1,1,0,0,0,0,0,0,0,0,0,0,0,0,0,0],"id":15,"left_children":[1,3,5,7,9,11,13,-1,15,-1,-1,-1,17,19,21,-1,-1,-1,-1,-1,-1,23,25,-1,27,-1,-1,-1,-1],"loss_changes":[2.1178806E0,1.4381921E0,1.5575649E0,1.7936349E0,5.697489E-1,9.9759936E-1,1.0225633E0,0E0,2.3723459E-1,0E0,0E0,0E0,2.134024E-1,1.060869E0,1.2888048E0,0E0,0E0,0E0,0E0,0E0,0E0,1.5556184E0,8.0143356E-1,0E0,1.3493731E0,0E0,0E0,0E0,0E0],"parents":[2147483647,0,0,1,1,2,2,3,3,4,4,5,5,6,6,8,8,12,12,13,13,14,14,21,21,22,22,24,24],"right_children":[2,4,6,8,10,12,14,-1,16,-1,-1,-1,18,20,22,-1,-1,-1,-1,-1,-1,24,26,-1,28,-1,-1,-1,-1],"split_conditions":[1E-45,1.484657E-1,-3.6274117E-1,1.7742614E-1,-1.8297404E0,6.021169E-1,-5.597993E-1,-1.2204813E-1,1E-45,4.565124E-3,1.5230148E-1,-1.5304284E-1,-9.0876323E-1,1.5327792E0,1E-45,1.2772028E-1,1.8451495E-2,-4.1441556E-2,5.0556865E-2,-1.3553615E-1,4.444925E-2,-1.5209416E-1,1E-45,1.3497008E-1,1E-45,-6.1044525E-3,1.6884372E-1,3.9649792E-2,-9.900319E-2],"split_indices":[5,2,0,0,0,2,2,0,5,0,0,0,0,0,1,0,0,0,0,0,0,2,3,0,3,0,0,0,0],"split_type":[1,0,0,0,0,0,0,0,1,0,0,0,0,0,1,0,0,0,0,0,0,0,1,0,1,0,0,0,0],"sum_hessian":[3.7117916E1,1.1335625E1,2.5782293E1,5.1985846E0,6.13704E0,6.6884513E0,1.9093842E1,2.1806781E0,3.0179062E0,1.3511455E0,4.785895E0,4.637696E0,2.0507557E0,4.2332373E0,1.4860604E1,1.0625813E0,1.9553249E0,1.0032846E0,1.047471E0,2.8458016E0,1.3874354E0,1.1247084E1,3.6135209E0,1.3753324E0,9.871751E0,1.4691557E0,2.1443653E0,4.0340204E0,5.8377304E0],"tree_param":{"num_deleted":"0","num_feature":"6","num_nodes":"29","size_leaf_vector":"1"}},{"base_weights":[-3.5122945E-3,2.1261302E-1,-2.2651622E-1,-3.5628233E-2,4.9373966E-1,-4.4452992E-1,7.229884E-2,-3.2743114E-1,3.894432E-1,-3.648388E-2,6.558184E-1,1.644207E-2,-5.5537087E-1,-1.68613E-1,1.3163368E-1,-5.7328326E-1,1.2025627E-1,-3.66166E-2,6.082261E-1,1.603641E-1,-2.2841878E-2,-6.5846555E-2,7.130905E-2,-7.200537E-1,3.032772E-3,-5.1136786E-1,2.0227921E-1,-1.5121269E-1,-1.2531414E-2,-3.072469E-2,6.7242436E-2,1.4459834E-1,2.986056E-2,-1.7699014E-1,-2.4176677E-1,-1.4249669E-1,3.7819247E-3,-7.609937E-2,1.2458833E-1,1.4029117E-2,-8.595797E-2],"categories":[0,1,2,1,0,1,2,3,4,6,0],"categories_nodes":[0,2,5,23],"categories_segments":[0,3,4,10],"categories_sizes":[3,1,6,1],"default_left":[1,1,0,1,0,0,1,1,0,0,1,1,0,1,0,1,0,0,0,0,0,0,0,0,0,0,1,0,0,0,0,0,0,0,0,0,0,0,0,0,0],"id":16,"left_children":[1,3,5,7,9,11,13,15,17,-1,19,21,23,25,-1,27,29,-1,31,-1,-1,-1,-1,33,-1,35,37,-1,-1,-1,-1,-1,-1,-1,39,-1,-1,-1,-1,-1,-1],"loss_changes":[1.7932522E0,1.3367951E0,1.2245938E0,1.4883844E0,1.098475E0,5.5701613E-1,1.322187E0,8.4476566E-1,7.279647E-1,0E0,9.2604136E-1,4.75936E-1,8.25825E-1,9.7767913E-1,0E0,3.9347982E-1,2.4832952E-1,0E0,9.182763E-2,0E0,0E0,0E0,0E0,3.184917E-1,0E0,4.2486584E-1,1.2224126E0,0E0,0E0,0E0,0E0,0E0,0E0,0E0,2.1234581E-1,0E0,0E0,0E0,0E0,0E0,0E0],"parents":[2147483647,0,0,1,1,2,2,3,3,4,4,5,5,6,6,7,7,8,8,10,10,11,11,12,12,13,13,15,15,16,16,18,18,23,23,25,25,26,26,34,34],"right_children":[2,4,6,8,10,12,14,16,18,-1,20,22,24,26,-1,28,30,-1,32,-1,-1,-1,-1,34,-1,36,38,-1,-1,-1,-1,-1,-1,-1,40,-1,-1,-1,-1,-1,-1],"split_conditions":[1E-45,4.034169E-2,1E-45,1.887786E-1,-1.0707526E0,1E-45,3.8728046E-1,2.9195693E-1,-1.2882828E0,-3.648388E-2,1.0581079E0,1.2872909E-1,1.9559124E0,-2.3202766E-1,1.3163368E-1,-3.6274117E-1,-2.0829876E-1,-3.66166E-2,-1.4322324E-1,1.603641E-1,-2.2841878E-2,-6.5846555E-2,7.130905E-2,1E-45,3.032772E-3,2.8427967E-1,-6.9456786E-1,-1.5121269E-1,-1.2531414E-2,-3.072469E-2,6.7242436E-2,1.4459834E-1,2.986056E-2,-1.7699014E-1,1.5494743E-1,-1.4249669E-1,3.7819247E-3,-7.609937E-2,1.2458833E-1,1.4029117E-2,-8.595797E-2],"split_indices":[3,2,1,0,0,5,0,4,2,0,4,2,0,2,0,0,0,0,2,0,0,0,0,5,0,0,0,0,0,0,0,0,0,0,0,0,0,0,0,0,0],"split_type":[1,0,1,0,0,1,0,0,0,0,0,0,0,0,0,0,0,0,0,0,0,0,0,1,0,0,0,0,0,0,0,0,0,0,0,0,0,0,0,0,0],"sum_hessian":[3.5207638E1,1.7903233E1,1.7304407E1,9.971466E0,7.9317656E0,9.722954E0,7.581453E0,6.0487947E0,3.9226718E0,1.5093923E0,6.4223733E0,2.0497963E0,7.6731577E0,5.8770056E0,1.7044472E0,3.7234697E0,2.3253248E0,1.1296643E0,2.7930074E0,5.3640313E0,1.058342E0,1.0324225E0,1.0173737E0,5.7510653E0,1.9220924E0,2.857519E0,3.0194867E0,2.3880136E0,1.3354561E0,1.1524276E0,1.1728973E0,1.7739722E0,1.0190353E0,3.6443622E0,2.1067028E0,1.8226478E0,1.0348712E0,1.30586E0,1.7136265E0,1.0281053E0,1.0785975E0],"tree_param":{"num_deleted":"0","num_feature":"6","num_nodes":"41","size_leaf_vector":"1"}},{"base_weights":[-5.2430076E-3,3.0301178E-1,-1.469831E-1,-1.14610784E-1,5.057564E-1,-3.336956E-1,1.1416891E-1,-1.204526E-1,2.455355E-1,6.797781E-1,1.7675662E-2,-4.0481022E-1,4.9870558E-2,4.0418565E-1,-1.2678513E-1,-1.5056938E-2,9.577826E-2,4.6291754E-2,1.6137372E-1,-8.271555E-2,8.651566E-2,-6.4432573E-1,-1.9548853E-1,1.7184896E-2,1.16100706E-1,2.3687494E-1,-1.296533E-1,-1.5259755E-1,-3.4709804E-2,4.3729153E-2,-3.6108565E-1,1.0264422E-1,-2.4996124E-2,-1.17490925E-1,-1.935651E-4],"categories":[0,1,3,4,6,0,2,0,2,0,0,1,2,3,2],"categories_nodes":[0,4,6,8,14,22,25],"categories_segments":[0,5,7,9,10,11,14],"categories_sizes":[5,2,2,1,1,3,1],"default_left":[0,0,1,0,1,1,0,0,0,0,1,0,0,1,1,0,0,0,0,0,0,1,0,0,0,1,0,0,0,0,0,0,0,0,0],"id":17,"left_children":[1,3,5,7,9,11,13,-1,15,17,19,21,-1,23,25,-1,-1,-1,-1,-1,-1,27,29,-1,-1,31,-1,-1,-1,-1,33,-1,-1,-1,-1],"loss_changes":[1.5391824E0,9.979552E-1,1.213558E0,9.2826235E-1,6.384518E-1,6.943536E-1,8.0561584E-1,0E0,2.8058165E-1,1.3338232E-1,7.2276306E-1,5.3268075E-1,0E0,2.384175E-1,1.4161048E0,0E0,0E0,0E0,0E0,0E0,0E0,1.8550944E-1,6.581698E-1,0E0,0E0,5.295978E-1,0E0,0E0,0E0,0E0,5.220182E-1,0E0,0E0,0E0,0E0],"parents":[2147483647,0,0,1,1,2,2,3,3,4,4,5,5,6,6,8,8,9,9,10,10,11,11,13,13,14,14,21,21,22,22,25,25,30,30],"right_children":[2,4,6,8,10,12,14,-1,16,18,20,22,-1,24,26,-1,-1,-1,-1,-1,-1,28,30,-1,-1,32,-1,-1,-1,-1,34,-1,-1,-1,-1],"split_conditions":[1E-45,-4.699571E-1,-4.2171452E-2,1.7742614E-1,1E-45,9.9673945E-1,1E-45,-1.204526E-1,1E-45,-2.627648E-1,-5.812685E-1,-4.796558E-1,4.9870558E-2,-7.5843745E-1,1E-45,-1.5056938E-2,9.577826E-2,4.6291754E-2,1.6137372E-1,-8.271555E-2,8.651566E-2,6.021169E-1,1E-45,1.7184896E-2,1.16100706E-1,1E-45,-1.296533E-1,-1.5259755E-1,-3.4709804E-2,4.3729153E-2,3.3435354E-1,1.0264422E-1,-2.4996124E-2,-1.17490925E-1,-1.935651E-4],"split_indices":[5,2,0,0,3,2,3,0,3,4,0,0,0,2,1,0,0,0,0,0,0,2,3,0,0,3,0,0,0,0,2,0,0,0,0],"split_type":[1,0,0,0,1,0,1,0,1,0,0,0,0,0,1,0,0,0,0,0,0,0,1,0,0,1,0,0,0,0,0,0,0,0,0],"sum_hessian":[3.320861E1,1.0101714E1,2.3106895E1,3.4434474E0,6.658267E0,1.33117695E1,9.795126E0,1.1771996E0,2.2662477E0,4.618733E0,2.039534E0,1.2137102E1,1.1746668E0,4.137598E0,5.6575284E0,1.2395217E0,1.026726E0,1.6432571E0,2.9754758E0,1.0016272E0,1.0379068E0,4.691132E0,7.44597E0,2.0052907E0,2.1323073E0,3.6546724E0,2.0028558E0,3.2509992E0,1.440133E0,2.0353954E0,5.4105744E0,1.8349966E0,1.8196758E0,2.934606E0,2.4759684E0],"tree_param":{"num_deleted":"0","num_feature":"6","num_nodes":"35","size_leaf_vector":"1"}},{"base_weights":[-3.3166239E-3,1.9002141E-1,-2.0130576E-1,-3.4344617E-1,2.8512806E-1,-5.1513857E-1,7.1430695E-3,-1.05825745E-1,1.7178598E-3,4.1351087E-2,5.866127E-1,-1.4973189E-1,-1.1636964E-1,1.6756599E-1,-6.9639966E-2,-2.0290728E-1,3.4621555E-1,7.253272E-1,-1.5912568E-2,-6.918367E-2,4.270352E-2,3.28135E-1,-5.744067E-2,-4.6753135E-1,4.7336E-2,-3.2238968E-2,5.578212E-1,1.711406E-1,4.197449E-2,1.1520142E-1,1.1524494E-1,-1.288014E-1,-1.0984792E-2,1.2992172E-1,3.4300353E-2,-4.013634E-2,1.0832967E-1],"categories":[0,1,2,0,1,2,0],"categories_nodes":[0,6,12,17,29],"categories_segments":[0,3,4,5,6],"categories_sizes":[3,1,1,1,1],"default_left":[1,0,0,1,1,1,1,0,0,1,1,0,0,1,0,1,0,1,0,0,0,0,0,1,0,0,0,0,0,0,0,0,0,0,0,0,0],"id":18,"left_children":[1,3,5,7,9,11,13,-1,-1,15,17,-1,19,21,-1,23,25,27,-1,-1,-1,29,-1,31,-1,-1,33,-1,-1,35,-1,-1,-1,-1,-1,-1,-1],"loss_changes":[1.2904972E0,9.637773E-1,1.0927634E0,2.0298189E-1,1.0803708E0,5.328884E-1,6.848297E-1,0E0,0E0,7.691973E-1,6.7165065E-1,0E0,3.4973088E-1,6.9643545E-1,0E0,7.90175E-1,5.7787836E-1,1.9659019E-1,0E0,0E0,0E0,2.8024298E-1,0E0,2.5461775E-1,0E0,0E0,1.0263562E-2,0E0,0E0,7.527135E-1,0E0,0E0,0E0,0E0,0E0,0E0,0E0],"parents":[2147483647,0,0,1,1,2,2,3,3,4,4,5,5,6,6,9,9,10,10,12,12,13,13,15,15,16,16,17,17,21,21,23,23,26,26,29,29],"right_children":[2,4,6,8,10,12,14,-1,-1,16,18,-1,20,22,-1,24,26,28,-1,-1,-1,30,-1,32,-1,-1,34,-1,-1,36,-1,-1,-1,-1,-1,-1,-1],"split_conditions":[1E-45,-1.0707526E0,-1.5682112E-2,5.4675615E-1,4.034169E-2,1.7466596E-1,1E-45,-1.05825745E-1,1.7178598E-3,1.887786E-1,1.0290483E0,-1.4973189E-1,1E-45,6.5654534E-1,-6.9639966E-2,2.9195693E-1,-1.2882828E0,1E-45,-1.5912568E-2,-6.918367E-2,4.270352E-2,5.7485235E-1,-5.744067E-2,-3.6274117E-1,4.7336E-2,-3.2238968E-2,-1.9765139E-1,1.711406E-1,4.197449E-2,1E-45,1.1524494E-1,-1.288014E-1,-1.0984792E-2,1.2992172E-1,3.4300353E-2,-4.013634E-2,1.0832967E-1],"split_indices":[3,0,0,2,2,2,1,0,0,0,4,0,1,4,0,4,2,1,0,0,0,2,0,0,0,0,2,0,0,5,0,0,0,0,0,0,0],"split_type":[1,0,0,0,0,0,1,0,0,0,0,0,1,0,0,0,0,1,0,0,0,0,0,0,0,0,0,0,0,1,0,0,0,0,0,0,0],"sum_hessian":[3.1713768E1,1.6065712E1,1.5648057E1,2.035744E0,1.4029967E1,5.658115E0,9.989942E0,1.003427E0,1.032317E0,8.3861685E0,5.6437993E0,3.015057E0,2.6430578E0,7.2467613E0,2.7431805E0,4.841543E0,3.544625E0,4.597658E0,1.0461409E0,1.5298982E0,1.1131597E0,5.5615563E0,1.6852046E0,2.9825375E0,1.8590058E0,1.1132901E0,2.431335E0,3.1426764E0,1.4549819E0,3.7808416E0,1.780715E0,1.696225E0,1.2863125E0,1.4138738E0,1.0174612E0,2.4761133E0,1.3047282E0],"tree_param":{"num_deleted":"0","num_feature":"6","num_nodes":"37","size_leaf_vector":"1"}},{"base_weights":[-1.9059569E-3,2.9047105E-1,-1.3601772E-1,-5.1494803E-2,4.9425864E-1,-4.10617E-1,2.0252082E-3,-1.1963208E-1,3.1302676E-1,1.1295034E-2,6.757768E-1,3.361076E-2,-6.211095E-1,-3.1547365E-1,1.1259656E-1,-4.7720666E-4,9.082325E-2,3.4606542E-2,1.5953724E-1,-1.5124668E-1,-3.4237664E-2,-1.18279114E-1,4.115904E-2,4.425872E-1,-1.18117124E-1,6.379823E-1,-1.9559408E-2,6.882701E-2,-2.8857693E-1,1.5174276E-1,3.4670394E-2,-1.0348822E-1,7.655245E-2],"categories":[0,1,3,4,6,0,1,2,3,0,1,1,3,6,1],"categories_nodes":[0,5,8,12,14,28],"categories_segments":[0,5,9,11,12,14],"categories_sizes":[5,4,2,1,2,1],"default_left":[0,0,0,0,1,0,0,0,0,0,0,0,1,1,0,0,0,0,0,0,0,0,0,1,0,1,0,0,1,0,0,0,0],"id":19,"left_children":[1,3,5,7,9,11,13,-1,15,-1,17,-1,19,21,23,-1,-1,-1,-1,-1,-1,-1,-1,25,27,29,-1,-1,31,-1,-1,-1,-1],"loss_changes":[1.2659141E0,7.3307616E-1,8.394286E-1,1.1232685E0,4.7493446E-1,1.0064417E0,5.8728814E-1,0E0,1.5570703E-1,0E0,1.3613081E-1,0E0,2.1363068E-1,7.4344885E-1,9.958945E-1,0E0,0E0,0E0,0E0,0E0,0E0,0E0,0E0,6.2312496E-1,7.362701E-1,9.4718695E-2,0E0,0E0,1.1890368E0,0E0,0E0,0E0,0E0],"parents":[2147483647,0,0,1,1,2,2,3,3,4,4,5,5,6,6,8,8,10,10,12,12,13,13,14,14,23,23,24,24,25,25,28,28],"right_children":[2,4,6,8,10,12,14,-1,16,-1,18,-1,20,22,24,-1,-1,-1,-1,-1,-1,-1,-1,26,28,30,-1,-1,32,-1,-1,-1,-1],"split_conditions":[1E-45,-1.632686E-2,-2.0289683E-1,1.7742614E-1,-1.0225068E0,1E-45,-5.597993E-1,-1.1963208E-1,1E-45,1.1295034E-2,-3.3313537E-1,3.361076E-2,1E-45,1.5327792E0,1E-45,-4.7720666E-4,9.082325E-2,3.4606542E-2,1.5953724E-1,-1.5124668E-1,-3.4237664E-2,-1.18279114E-1,4.115904E-2,8.9646053E-1,-1.0183884E-1,4.949498E-2,-1.9559408E-2,6.882701E-2,1E-45,1.5174276E-1,3.4670394E-2,-1.0348822E-1,7.655245E-2],"split_indices":[5,2,0,0,0,3,2,0,3,0,4,0,1,0,5,0,0,0,0,0,0,0,0,4,2,0,0,0,1,0,0,0,0],"split_type":[1,0,0,0,0,1,0,0,1,0,0,0,1,0,1,0,0,0,0,0,0,0,0,0,0,0,0,0,1,0,0,0,0],"sum_hessian":[3.0276901E1,9.15412E0,2.1122782E1,3.6972537E0,5.4568667E0,6.405735E0,1.4717046E1,1.2226796E0,2.474574E0,1.983708E0,3.4731586E0,1.76237E0,4.643365E0,3.3227756E0,1.139427E1,1.0686469E0,1.4059272E0,1.150002E0,2.3231566E0,3.047348E0,1.596017E0,2.0847366E0,1.2380391E0,4.3105435E0,7.0837264E0,3.0331807E0,1.2773628E0,1.6339432E0,5.4497833E0,1.905188E0,1.1279929E0,4.2352114E0,1.2145722E0],"tree_param":{"num_deleted":"0","num_feature":"6","num_nodes":"33","size_leaf_vector":"1"}},{"base_weights":[3.4349887E-3,-4.9256224E-2,1.2912871E-1,-1.2674376E-1,3.1361192E-2,1.7866154E-1,-2.5109655E-1,-8.376858E-2,3.6877528E-1,9.293006E-2,-4.366898E-1,3.066839E-1,-4.5119092E-1,5.7088643E-1,-1.8042476E-1,-1.9891268E-1,9.561017E-2,-5.577891E-1,-1.1112267E-2,4.776589E-3,1.0481584E-1,-1.17377E-1,-8.286036E-3,2.501498E-2,1.5176445E-1,-9.415621E-2,5.6848682E-2,-1.0935869E-1,4.8261803E-2,-2.9550705E-2,-1.3693206E-1],"categories":[1,2,0,1,4,0,3,1,1,1],"categories_nodes":[4,7,8,10,12,14],"categories_segments":[0,2,5,7,8,9],"categories_sizes":[2,3,2,1,1,1],"default_left":[1,0,0,0,1,1,1,0,1,0,1,0,1,1,0,1,0,0,0,0,0,0,0,0,0,0,0,0,0,0,0],"id":20,"left_children":[1,3,-1,-1,5,7,9,11,13,15,17,19,21,23,25,27,-1,29,-1,-1,-1,-1,-1,-1,-1,-1,-1,-1,-1,-1,-1],"loss_changes":[1.0477113E0,1.3709669E0,0E0,0E0,1.132936E0,9.175895E-1,6.394407E-1,1.3263906E0,1.2675388E0,5.571784E-1,2.5830424E-1,2.7090907E-1,2.3540527E-1,5.677564E-1,6.1711776E-1,5.982813E-1,0E0,1.4053226E-1,0E0,0E0,0E0,0E0,0E0,0E0,0E0,0E0,0E0,0E0,0E0,0E0,0E0],"parents":[2147483647,0,0,1,1,4,4,5,5,6,6,7,7,8,8,9,9,10,10,11,11,12,12,13,13,14,14,15,15,17,17],"right_children":[2,4,-1,-1,6,8,10,12,14,16,18,20,22,24,26,28,-1,30,-1,-1,-1,-1,-1,-1,-1,-1,-1,-1,-1,-1,-1],"split_conditions":[1.540389E0,-1.0707526E0,1.2912871E-1,-1.2674376E-1,1E-45,-5.183214E-1,-7.048235E-1,1E-45,1E-45,3.4198883E-1,1E-45,9.101789E-1,1E-45,-4.386891E-1,1E-45,5.292646E-3,9.561017E-2,5.292646E-3,-1.1112267E-2,4.776589E-3,1.0481584E-1,-1.17377E-1,-8.286036E-3,2.501498E-2,1.5176445E-1,-9.415621E-2,5.6848682E-2,-1.0935869E-1,4.8261803E-2,-2.9550705E-2,-1.3693206E-1],"split_indices":[2,0,0,0,3,2,4,5,5,2,1,0,1,4,1,0,0,0,0,0,0,0,0,0,0,0,0,0,0,0,0],"split_type":[0,0,0,0,1,0,0,1,1,0,1,0,1,0,1,0,0,0,0,0,0,0,0,0,0,0,0,0,0,0,0],"sum_hessian":[2.9022072E1,2.7674747E1,1.347325E0,2.5229526E0,2.5151794E1,1.6772495E1,8.379299E0,7.281122E0,9.491373E0,3.1112967E0,5.2680025E0,3.6100757E0,3.6710463E0,6.909222E0,2.582151E0,2.045063E0,1.0662335E0,3.6460054E0,1.6219971E0,2.0513785E0,1.5586972E0,2.433064E0,1.2379823E0,2.5428128E0,4.3664093E0,1.5810487E0,1.0011022E0,1.0071144E0,1.0379486E0,1.3730465E0,2.2729588E0],"tree_param":{"num_deleted":"0","num_feature":"6","num_nodes":"31","size_leaf_vector":"1"}},{"base_weights":[2.55495E-3,-1.3904339E-1,2.3477884E-1,-2.336154E-1,1.2931733E-1,-8.08424E-2,3.5933548E-1,-1.4115165E-1,-1.20896466E-1,4.6547008E-1,-2.0405872E-2,-3.1601843E-1,1.8858479E-1,1.5154222E-1,6.600019E-1,5.8975648E-2,-4.2942613E-1,3.8243198E-1,-5.3049892E-2,7.6490246E-2,-3.181277E-2,1.4933603E-1,4.593513E-2,-1.13605164E-1,4.8010692E-2,1.1253641E-1,-5.553989E-3],"categories":[2,0,1,3,4,5,6,7,0,1,2,3],"categories_nodes":[6,11,17],"categories_segments":[0,1,8],"categories_sizes":[1,7,4],"default_left":[1,1,0,0,0,0,1,0,1,0,0,0,0,0,0,0,1,1,0,0,0,0,0,0,0,0,0],"id":21,"left_children":[1,3,5,7,-1,-1,9,-1,11,13,-1,15,17,19,21,-1,23,25,-1,-1,-1,-1,-1,-1,-1,-1,-1],"loss_changes":[9.794472E-1,1.5266911E0,1.04291E0,8.3325815E-1,0E0,0E0,5.3559434E-1,0E0,9.738765E-1,4.0585172E-1,0E0,7.9584986E-1,6.715886E-1,3.8123414E-1,8.154392E-3,0E0,9.3010545E-1,3.81675E-1,0E0,0E0,0E0,0E0,0E0,0E0,0E0,0E0,0E0],"parents":[2147483647,0,0,1,1,2,2,3,3,6,6,8,8,9,9,11,11,12,12,13,13,14,14,16,16,17,17],"right_children":[2,4,6,8,-1,-1,10,-1,12,14,-1,16,18,20,22,-1,24,26,-1,-1,-1,-1,-1,-1,-1,-1,-1],"split_conditions":[5.8925588E-2,1.3860914E0,-1.4402752E0,-1.0707526E0,1.2931733E-1,-8.08424E-2,1E-45,-1.4115165E-1,1.6520555E-1,4.231784E-2,-2.0405872E-2,1E-45,1.5602595E0,-5.441321E-1,1.1739321E0,5.8975648E-2,1.1739321E0,1E-45,-5.3049892E-2,7.6490246E-2,-3.181277E-2,1.4933603E-1,4.593513E-2,-1.13605164E-1,4.8010692E-2,1.1253641E-1,-5.553989E-3],"split_indices":[0,2,2,0,0,0,3,0,2,4,0,5,4,4,4,0,4,5,0,0,0,0,0,0,0,0,0],"split_type":[0,0,0,0,0,0,1,0,0,0,0,1,0,0,0,0,0,1,0,0,0,0,0,0,0,0,0],"sum_hessian":[2.7793499E1,1.7514996E1,1.0278503E1,1.626027E1,1.2547275E0,1.3104628E0,8.96804E0,2.1198187E0,1.414045E1,7.2835903E0,1.6844501E0,8.65961E0,5.4808397E0,3.4672642E0,3.8163261E0,1.1053307E0,7.5542793E0,3.9507E0,1.5301399E0,1.8561034E0,1.6111606E0,2.5646033E0,1.2517228E0,6.3841376E0,1.1701417E0,2.4864085E0,1.4642915E0],"tree_param":{"num_deleted":"0","num_feature":"6","num_nodes":"27","size_leaf_vector":"1"}},{"base_weights":[8.628978E-3,2.6655778E-1,-1.2447599E-1,-6.2774904E-2,5.506945E-1,7.7380486E-2,-5.124236E-1,-3.8474858E-1,7.429124E-2,7.3192627E-3,1.3768002E-1,-3.6036015E-1,2.952148E-1,-1.7206843E-1,5.8750093E-2,-1.1653999E-1,-1.5698873E-2,-1.4732046E-1,2.8481433E-2,5.655413E-1,4.1497998E-2,1.3650003E-1,2.0276366E-2,-2.76183E-1,2.8499532E-1,-5.619885E-3,-7.790274E-2,-8.607888E-3,9.032698E-2],"categories":[0,1,2,1,3,6,1,0,2,3,4,0,2,0,1],"categories_nodes":[0,2,6,12,19,23,24],"categories_segments":[0,3,6,7,11,12,13],"categories_sizes":[3,3,1,4,1,1,2],"default_left":[0,1,1,1,0,0,1,0,0,0,0,1,1,0,0,0,0,0,0,1,1,0,0,1,0,0,0,0,0],"id":22,"left_children":[1,3,5,7,9,11,13,15,-1,-1,-1,17,19,-1,-1,-1,-1,-1,-1,21,23,-1,-1,25,27,-1,-1,-1,-1],"loss_changes":[9.800903E-1,9.4288826E-1,1.5177093E0,8.969887E-1,3.5095668E-1,1.3730439E0,2.1013527E0,1.7179608E-1,0E0,0E0,0E0,1.0250204E0,6.225764E-1,0E0,0E0,0E0,0E0,0E0,0E0,1.74083E-1,5.3805584E-1,0E0,0E0,7.577571E-2,2.3009685E-1,0E0,0E0,0E0,0E0],"parents":[2147483647,0,0,1,1,2,2,3,3,4,4,5,5,6,6,7,7,11,11,12,12,19,19,20,20,23,23,24,24],"right_children":[2,4,6,8,10,12,14,16,-1,-1,-1,18,20,-1,-1,-1,-1,-1,-1,22,24,-1,-1,26,28,-1,-1,-1,-1],"split_conditions":[1E-45,-2.5600532E-1,1E-45,5.8925588E-2,-1.0452534E0,-1.5682112E-2,1E-45,-1.1835896E-1,7.429124E-2,7.3192627E-3,1.3768002E-1,1.7466596E-1,1E-45,-1.7206843E-1,5.8750093E-2,-1.1653999E-1,-1.5698873E-2,-1.4732046E-1,2.8481433E-2,1E-45,-5.183214E-1,1.3650003E-1,2.0276366E-2,1E-45,1E-45,-5.619885E-3,-7.790274E-2,-8.607888E-3,9.032698E-2],"split_indices":[3,2,5,0,0,0,1,4,0,0,0,2,3,0,0,0,0,0,0,1,2,0,0,3,5,0,0,0,0],"split_type":[1,0,1,0,0,0,1,0,0,0,0,0,1,0,0,0,0,0,0,1,0,0,0,1,1,0,0,0,0],"sum_hessian":[2.65813E1,8.706794E0,1.7874506E1,4.393507E0,4.3132873E0,1.2283637E1,5.59087E0,2.5882936E0,1.8052135E0,1.1786757E0,3.1346114E0,3.8641984E0,8.419438E0,3.8584826E0,1.7323873E0,1.0238482E0,1.5644453E0,1.9441857E0,1.9200127E0,3.481255E0,4.938183E0,2.4048753E0,1.0763799E0,2.084451E0,2.853732E0,1.0449569E0,1.039494E0,1.2111903E0,1.6425418E0],"tree_param":{"num_deleted":"0","num_feature":"6","num_nodes":"29","size_leaf_vector":"1"}},{"base_weights":[6.86188E-3,3.105507E-1,-8.794621E-2,-7.022335E-3,5.7202613E-1,-1.3165355E-1,-1.1665535E-2,1.06439844E-1,-7.6523714E-2,1.3939932E-1,2.691756E-2,-3.969812E-1,1.1320988E-1,-1.327173E-1,2.654988E-2,-2.395056E-2,4.7009757E-1,2.1795078E-1,-4.1380727E-1,-3.3782907E-3,1.2548678E-1,1.88203E-3,1.4134412E-1,7.152762E-2,-1.4908668E-1],"categories":[0,1,3,4,6,7,1,1,3,6,0,1,2],"categories_nodes":[0,12,15,18],"categories_segments":[0,6,7,10],"categories_sizes":[6,1,3,3],"default_left":[0,1,0,0,0,0,0,0,0,0,0,1,1,0,0,1,1,0,0,0,0,0,0,0,0],"id":23,"left_children":[1,3,5,7,9,-1,11,-1,-1,-1,-1,13,15,-1,-1,17,19,21,23,-1,-1,-1,-1,-1,-1],"loss_changes":[7.825012E-1,5.405182E-1,8.9582497E-1,9.9458474E-1,1.005646E-1,0E0,9.7532463E-1,0E0,0E0,0E0,0E0,7.878279E-1,7.6419336E-1,0E0,0E0,1.2277821E0,3.4150594E-1,8.1885326E-1,1.5364943E0,0E0,0E0,0E0,0E0,0E0,0E0],"parents":[2147483647,0,0,1,1,2,2,3,3,4,4,6,6,11,11,12,12,15,15,16,16,17,17,18,18],"right_children":[2,4,6,8,10,-1,12,-1,-1,-1,-1,14,16,-1,-1,18,20,22,24,-1,-1,-1,-1,-1,-1],"split_conditions":[1E-45,-1.8581888E-1,-1.1280113E0,-8.222463E-1,4.5907173E-1,-1.3165355E-1,-5.183214E-1,1.06439844E-1,-7.6523714E-2,1.3939932E-1,2.691756E-2,6.845011E-1,1E-45,-1.327173E-1,2.654988E-2,1E-45,-9.152257E-1,2.2247164E0,1E-45,-3.3782907E-3,1.2548678E-1,1.88203E-3,1.4134412E-1,7.152762E-2,-1.4908668E-1],"split_indices":[5,4,0,4,4,0,2,0,0,0,0,0,1,0,0,5,4,4,3,0,0,0,0,0,0],"split_type":[1,0,0,0,0,0,0,0,0,0,0,0,1,0,0,1,0,0,1,0,0,0,0,0,0],"sum_hessian":[2.5229002E1,5.460948E0,1.9768055E1,2.9053822E0,2.555566E0,1.4319985E0,1.8336056E1,1.0216763E0,1.8837057E0,1.526193E0,1.0293729E0,3.9546297E0,1.4381427E1,2.4625697E0,1.4920601E0,1.106267E1,3.3187568E0,7.09886E0,3.9638097E0,1.0283712E0,2.2903857E0,5.690275E0,1.4085846E0,1.1680938E0,2.7957158E0],"tree_param":{"num_deleted":"0","num_feature":"6","num_nodes":"25","size_leaf_vector":"1"}}]},"name":"gbtree"},"learner_model_param":{"base_score":"[5.190476E-1]","boost_from_average":"1","num_class":"0","num_feature":"6","num_target":"1"},"objective":{"name":"binary:logistic","reg_loss_param":{"scale_pos_weight":"1"}}},"version":[3,3,0]}